{"learner":{"attributes":{"scikit_learn":"{\"_estimator_type\": \"regressor\"}"},"feature_names":["Year","Duration","Votes","DirectorAvgRating","Actor1AvgRating","Actor2AvgRating","Actor3AvgRating"],"feature_types":["int","int","float","float","float","float","float"],"gradient_booster":{"model":{"gbtree_model_param":{"num_parallel_tree":"1","num_trees":"100"},"iteration_indptr":[0,1,2,3,4,5,6,7,8,9,10,11,12,13,14,15,16,17,18,19,20,21,22,23,24,25,26,27,28,29,30,31,32,33,34,35,36,37,38,39,40,41,42,43,44,45,46,47,48,49,50,51,52,53,54,55,56,57,58,59,60,61,62,63,64,65,66,67,68,69,70,71,72,73,74,75,76,77,78,79,80,81,82,83,84,85,86,87,88,89,90,91,92,93,94,95,96,97,98,99,100],"tree_info":[0,0,0,0,0,0,0,0,0,0,0,0,0,0,0,0,0,0,0,0,0,0,0,0,0,0,0,0,0,0,0,0,0,0,0,0,0,0,0,0,0,0,0,0,0,0,0,0,0,0,0,0,0,0,0,0,0,0,0,0,0,0,0,0,0,0,0,0,0,0,0,0,0,0,0,0,0,0,0,0,0,0,0,0,0,0,0,0,0,0,0,0,0,0,0,0,0,0,0,0],"trees":[{"base_weights":[2.1856782E-7,-1.0980269E0,5.352454E-1,-2.1467705E0,-7.758101E-1,2.3481588E-1,1.3084008E0,-2.8790188E0,-1.8484335E0,-1.254532E0,-3.7700558E-1,5.8732014E-2,7.1051806E-1,1.069373E0,2.006613E0,-9.993984E-1,-7.8036195E-1,-2.389979E0,-1.609729E0,-1.9731143E0,-1.0364482E0,-6.6071355E-1,1.3583358E-1,-9.79948E-1,1.4043824E-1,6.211695E-1,1.4558971E0,9.345483E-1,1.4612736E0,1.7605705E0,7.787979E-1,-8.4957093E-1,-2.179362E0,-1.6801906E0,-8.5865855E-1,-7.835439E-1,-1.7408694E0,-2.208816E0,-9.515667E-1,-6.880456E-1,-6.0927737E-1,1.1338985E-2,8.004902E-1,-1.5651847E0,-5.9190714E-1,8.191918E-2,5.6739336E-1,4.9564457E-1,9.3140113E-1,1.2612684E0,5.900965E-1,-5.322922E-1,9.629428E-1,1.3212212E0,5.694051E-1,1.6583546E0,6.345595E-1,-6.7082936E-1,-3.0518198E-1,-6.2554216E-1,-4.7189787E-1,-3.8213304E-1,-4.909107E-2,-6.69113E-1,-4.7293794E-1,-7.577155E-1,-4.980456E-1,-3.1101447E-1,-1.5171802E-1,-2.0729227E-1,3.6552094E-2,-1.8976153E-1,3.1379934E-2,1.470958E-1,3.6638248E-1,-5.8558255E-1,-3.765781E-1,-3.803471E-1,-1.2159582E-1,-6.899707E-2,4.6027385E-2,1.4206225E-1,3.8978168E-1,5.1276404E-2,1.823968E-1,2.5407365E-1,4.3050247E-1,2.8195435E-1,4.0159816E-1,-3.7118196E-1,-7.5427475E-3,2.7229398E-1,4.5432022E-1,3.728087E-1,4.7062483E-1,1.656817E-1,5.0074E-1],"categories":[],"categories_nodes":[],"categories_segments":[],"categories_sizes":[],"default_left":[0,0,0,0,0,0,0,0,0,0,0,0,0,0,0,0,0,0,0,0,0,0,0,0,0,0,0,0,0,0,0,0,0,0,0,0,0,0,0,0,0,0,0,0,0,0,0,0,0,0,0,0,0,0,0,0,0,0,0,0,0,0,0,0,0,0,0,0,0,0,0,0,0,0,0,0,0,0,0,0,0,0,0,0,0,0,0,0,0,0,0,0,0,0,0,0,0],"id":0,"left_children":[1,3,5,7,9,11,13,15,17,19,21,23,25,27,29,-1,-1,31,33,35,37,39,41,43,45,47,49,51,53,55,-1,-1,57,59,61,-1,63,65,67,-1,69,71,73,75,77,79,81,83,85,87,-1,89,91,93,-1,95,-1,-1,-1,-1,-1,-1,-1,-1,-1,-1,-1,-1,-1,-1,-1,-1,-1,-1,-1,-1,-1,-1,-1,-1,-1,-1,-1,-1,-1,-1,-1,-1,-1,-1,-1,-1,-1,-1,-1,-1,-1],"loss_changes":[3.346442E3,6.2889844E2,8.8885547E2,9.036243E1,2.7234662E2,2.3097794E2,1.7659558E2,7.041626E0,3.6743286E1,9.966034E1,1.1372257E2,1.71059E2,4.8711548E1,4.0904663E1,3.4872925E1,0E0,0E0,2.5774536E0,1.0252991E1,1.770337E1,4.765442E1,4.0846344E1,2.30771E1,3.245662E1,4.6625526E1,2.5512543E1,5.3774567E0,2.5419373E1,9.90918E0,3.560669E0,0E0,0E0,2.2086487E0,5.4454346E0,5.850401E0,0E0,5.5780945E0,1.5447083E0,1.7242157E1,0E0,2.929216E1,1.4237615E1,5.143852E0,4.501999E0,1.0836725E1,3.6701767E1,1.4839706E1,1.7297485E1,6.9115906E0,2.3439026E-1,0E0,4.259263E0,1.6525146E1,1.1021729E0,0E0,9.380493E-1,0E0,0E0,0E0,0E0,0E0,0E0,0E0,0E0,0E0,0E0,0E0,0E0,0E0,0E0,0E0,0E0,0E0,0E0,0E0,0E0,0E0,0E0,0E0,0E0,0E0,0E0,0E0,0E0,0E0,0E0,0E0,0E0,0E0,0E0,0E0,0E0,0E0,0E0,0E0,0E0,0E0],"parents":[2147483647,0,0,1,1,2,2,3,3,4,4,5,5,6,6,7,7,8,8,9,9,10,10,11,11,12,12,13,13,14,14,17,17,18,18,19,19,20,20,21,21,22,22,23,23,24,24,25,25,26,26,27,27,28,28,29,29,32,32,33,33,34,34,36,36,37,37,38,38,40,40,41,41,42,42,43,43,44,44,45,45,46,46,47,47,48,48,49,49,51,51,52,52,53,53,55,55],"right_children":[2,4,6,8,10,12,14,16,18,20,22,24,26,28,30,-1,-1,32,34,36,38,40,42,44,46,48,50,52,54,56,-1,-1,58,60,62,-1,64,66,68,-1,70,72,74,76,78,80,82,84,86,88,-1,90,92,94,-1,96,-1,-1,-1,-1,-1,-1,-1,-1,-1,-1,-1,-1,-1,-1,-1,-1,-1,-1,-1,-1,-1,-1,-1,-1,-1,-1,-1,-1,-1,-1,-1,-1,-1,-1,-1,-1,-1,-1,-1,-1,-1],"split_conditions":[5.6666665E0,4.65E0,6.7391305E0,3.65E0,5.4E0,6.4E0,7.428571E0,3E0,4.2E0,4.4466667E0,6.048148E0,5.075E0,7.2E0,7.025E0,8.2E0,-9.993984E-1,-7.8036195E-1,3.6E0,6.048E0,3.775E0,4E0,4E0,6.6E0,5.25E0,6.5625E0,6.65E0,7.8E0,4.9941177E0,7.6E0,7.9E0,7.787979E-1,-8.4957093E-1,4.525E0,4.3E0,5.6863637E0,-7.835439E-1,4.2E0,5.1E0,6.090909E0,-6.880456E-1,4.12E3,4.766667E0,2.008E3,4.366667E0,4.366667E0,5.757143E0,7.1E0,6.1125E0,7E0,6.3333335E0,5.900965E-1,5.25E0,1.0075E4,7.3461537E0,5.694051E-1,5.1125E0,6.345595E-1,-6.7082936E-1,-3.0518198E-1,-6.2554216E-1,-4.7189787E-1,-3.8213304E-1,-4.909107E-2,-6.69113E-1,-4.7293794E-1,-7.577155E-1,-4.980456E-1,-3.1101447E-1,-1.5171802E-1,-2.0729227E-1,3.6552094E-2,-1.8976153E-1,3.1379934E-2,1.470958E-1,3.6638248E-1,-5.8558255E-1,-3.765781E-1,-3.803471E-1,-1.2159582E-1,-6.899707E-2,4.6027385E-2,1.4206225E-1,3.8978168E-1,5.1276404E-2,1.823968E-1,2.5407365E-1,4.3050247E-1,2.8195435E-1,4.0159816E-1,-3.7118196E-1,-7.5427475E-3,2.7229398E-1,4.5432022E-1,3.728087E-1,4.7062483E-1,1.656817E-1,5.0074E-1],"split_indices":[3,6,3,6,5,6,3,6,3,3,6,6,6,6,3,0,0,3,4,3,5,3,5,5,4,4,6,5,6,6,0,0,6,5,5,0,5,4,6,0,2,3,0,6,6,5,4,3,5,4,0,6,2,5,0,5,0,0,0,0,0,0,0,0,0,0,0,0,0,0,0,0,0,0,0,0,0,0,0,0,0,0,0,0,0,0,0,0,0,0,0,0,0,0,0,0,0],"split_type":[0,0,0,0,0,0,0,0,0,0,0,0,0,0,0,0,0,0,0,0,0,0,0,0,0,0,0,0,0,0,0,0,0,0,0,0,0,0,0,0,0,0,0,0,0,0,0,0,0,0,0,0,0,0,0,0,0,0,0,0,0,0,0,0,0,0,0,0,0,0,0,0,0,0,0,0,0,0,0,0,0,0,0,0,0,0,0,0,0,0,0,0,0,0,0,0,0],"sum_hessian":[5.692E3,1.865E3,3.827E3,4.37E2,1.428E3,2.757E3,1.07E3,1.24E2,3.13E2,6.48E2,7.8E2,2.013E3,7.44E2,7.99E2,2.71E2,4.3E1,8.1E1,9.3E1,2.2E2,1.49E2,4.99E2,5.02E2,2.78E2,1.46E2,1.867E3,6.66E2,7.8E1,5.97E2,2.02E2,1.94E2,7.7E1,2.6E1,6.7E1,2E2,2E1,3.7E1,1.12E2,3.2E1,4.67E2,1.4E1,4.88E2,2.35E2,4.3E1,5.7E1,8.9E1,1.643E3,2.24E2,4.76E2,1.9E2,5.9E1,1.9E1,1.1E1,5.86E2,1.56E2,4.6E1,1.55E2,3.9E1,6.3E1,4E0,3.8E1,1.62E2,1.2E1,8E0,2.5E1,8.7E1,1.8E1,1.4E1,3.91E2,7.6E1,4.39E2,4.9E1,2.9E1,2.06E2,2.6E1,1.7E1,2.3E1,3.4E1,1.8E1,7.1E1,3.06E2,1.337E3,2E2,2.4E1,1.23E2,3.53E2,1.65E2,2.5E1,1.4E1,4.5E1,4E0,7E0,5.35E2,5.1E1,1.23E2,3.3E1,2E0,1.53E2],"tree_param":{"num_deleted":"0","num_feature":"7","num_nodes":"97","size_leaf_vector":"1"}},{"base_weights":[-7.3836313E-4,-8.8421553E-1,3.30006E-1,-1.4183905E0,-5.706645E-1,5.7867397E-2,7.8476125E-1,-2.2134724E0,-1.2695644E0,-1.0545375E0,-3.6647055E-1,-5.7582843E-1,1.4574713E-1,5.930555E-1,1.2466735E0,-7.898858E-1,-6.109305E-1,-1.9764864E0,-1.1612768E0,-1.5931058E0,-8.9497346E-1,-6.132701E-1,-1.120825E-1,-1.2833316E0,-3.8391423E-1,7.812498E-2,5.8794326E-1,2.7565175E-1,7.332518E-1,1.0771722E0,1.7201926E0,-6.0314345E-1,-9.7249264E-1,-1.2839781E0,-6.7263746E-1,-6.122327E-1,-4.392365E-1,-9.391715E-1,1.5362152E-1,-9.108723E-1,-4.8025084E-1,-3.2566082E-1,1.5562782E-1,-5.665546E-1,-1.1169549E0,-6.0175186E-1,3.849416E-2,5.1437818E-2,9.2992234E-1,4.8990375E-1,1.0965292E0,1.609164E-1,7.838137E-1,6.4663213E-1,1.1062868E0,1.0149752E0,1.4138834E0,4.704002E-1,6.6708785E-1,-3.5019234E-1,-5.8207083E-2,-5.4230917E-1,-3.6400813E-1,-2.7611303E-1,-5.1376052E-2,-5.9958655E-1,-2.6830178E-1,1.2965134E-1,-1.9211535E-1,-2.9957324E-1,-3.9997518E-2,-1.5423265E-1,2.8454074E-1,-1.5771502E-1,1.4835741E-2,2.9093891E-2,4.6997115E-1,-4.3173742E-1,-2.804864E-1,-1.953822E-1,2.4573879E-1,-1.19003706E-1,5.5557396E-2,-5.6613553E-2,3.8921162E-2,4.3899828E-1,2.1080984E-1,5.6156393E-2,1.7774378E-1,2.639524E-1,4.4247457E-1,-1.9675489E-1,6.6063695E-2,3.064558E-1,1.8523066E-1,1.7075789E-1,2.549764E-1,2.999416E-1,4.4601652E-1,2.71193E-1,3.3971566E-1,3.823171E-1,5.248239E-1],"categories":[],"categories_nodes":[],"categories_segments":[],"categories_sizes":[],"default_left":[0,0,0,0,0,0,0,0,0,0,0,0,0,0,0,0,0,0,0,0,0,0,0,0,0,0,0,0,0,0,0,0,0,0,0,0,0,0,0,0,0,0,0,0,0,0,0,0,0,0,0,0,0,0,0,0,0,0,0,0,0,0,0,0,0,0,0,0,0,0,0,0,0,0,0,0,0,0,0,0,0,0,0,0,0,0,0,0,0,0,0,0,0,0,0,0,0,0,0,0,0,0,0],"id":1,"left_children":[1,3,5,7,9,11,13,15,17,19,21,23,25,27,29,-1,-1,31,33,35,37,39,41,43,45,47,49,51,53,55,57,-1,59,61,63,-1,-1,65,67,69,71,73,75,-1,77,79,81,83,85,87,89,91,93,95,97,99,101,-1,-1,-1,-1,-1,-1,-1,-1,-1,-1,-1,-1,-1,-1,-1,-1,-1,-1,-1,-1,-1,-1,-1,-1,-1,-1,-1,-1,-1,-1,-1,-1,-1,-1,-1,-1,-1,-1,-1,-1,-1,-1,-1,-1,-1,-1],"loss_changes":[1.6638154E3,2.5896924E2,5.1267755E2,6.499243E1,9.634262E1,1.4448553E2,1.3660358E2,1.2476501E0,3.483191E1,2.3495667E1,4.3251434E1,4.2413757E1,6.8071396E1,4.8657623E1,3.458606E1,0E0,0E0,1.9485474E-1,2.4497986E1,7.6530457E-1,1.0618423E1,1.34179535E1,1.9548082E1,4.6367416E0,2.3027279E1,4.489343E1,1.4520981E1,1.9580667E1,2.3874207E1,5.6225586E0,5.554291E0,0E0,3.8014483E-1,1.0270142E1,1.0648872E1,0E0,0E0,8.519531E0,2.4884562E0,7.163719E0,1.2290783E1,1.42842865E1,1.2425957E1,0E0,1.8794098E0,1.2143703E1,5.5635867E0,3.608973E1,6.2438316E0,7.8071632E0,2.6379128E0,1.3559776E1,1.8213158E0,9.276581E0,4.2658997E0,2.7297058E0,1.1076355E-1,0E0,0E0,0E0,0E0,0E0,0E0,0E0,0E0,0E0,0E0,0E0,0E0,0E0,0E0,0E0,0E0,0E0,0E0,0E0,0E0,0E0,0E0,0E0,0E0,0E0,0E0,0E0,0E0,0E0,0E0,0E0,0E0,0E0,0E0,0E0,0E0,0E0,0E0,0E0,0E0,0E0,0E0,0E0,0E0,0E0,0E0],"parents":[2147483647,0,0,1,1,2,2,3,3,4,4,5,5,6,6,7,7,8,8,9,9,10,10,11,11,12,12,13,13,14,14,17,17,18,18,19,19,20,20,21,21,22,22,23,23,24,24,25,25,26,26,27,27,28,28,29,29,30,30,32,32,33,33,34,34,37,37,38,38,39,39,40,40,41,41,42,42,44,44,45,45,46,46,47,47,48,48,49,49,50,50,51,51,52,52,53,53,54,54,55,55,56,56],"right_children":[2,4,6,8,10,12,14,16,18,20,22,24,26,28,30,-1,-1,32,34,36,38,40,42,44,46,48,50,52,54,56,58,-1,60,62,64,-1,-1,66,68,70,72,74,76,-1,78,80,82,84,86,88,90,92,94,96,98,100,102,-1,-1,-1,-1,-1,-1,-1,-1,-1,-1,-1,-1,-1,-1,-1,-1,-1,-1,-1,-1,-1,-1,-1,-1,-1,-1,-1,-1,-1,-1,-1,-1,-1,-1,-1,-1,-1,-1,-1,-1,-1,-1,-1,-1,-1,-1],"split_conditions":[5.4911766E0,4.65E0,6.521053E0,3.4E0,5.1E0,5.35E0,7.25E0,2.8E0,3.8E0,4.525E0,5.6E0,4.96E0,6.55E0,6.2775E0,8E0,-7.898858E-1,-6.109305E-1,5.7551723E0,5.733333E0,3.45E0,6.3428574E0,5E0,6.05E0,4E0,6E0,1.1195E4,7.2E0,6.67E0,7.1181817E0,7.7E0,8.8E0,-6.0314345E-1,2.012E3,3.9E0,5.765E0,-6.122327E-1,-4.392365E-1,3.6E0,5.3E0,2.528E3,6.65E0,5.825E0,6.9166665E0,-5.665546E-1,4.575862E0,8.146E3,5.7851853E0,5.8285713E0,2.004E3,6.104E0,7.6E0,4.9941177E0,1.28E2,3.04E2,7.7E0,5.22E2,8.1E0,4.704002E-1,6.6708785E-1,-3.5019234E-1,-5.8207083E-2,-5.4230917E-1,-3.6400813E-1,-2.7611303E-1,-5.1376052E-2,-5.9958655E-1,-2.6830178E-1,1.2965134E-1,-1.9211535E-1,-2.9957324E-1,-3.9997518E-2,-1.5423265E-1,2.8454074E-1,-1.5771502E-1,1.4835741E-2,2.9093891E-2,4.6997115E-1,-4.3173742E-1,-2.804864E-1,-1.953822E-1,2.4573879E-1,-1.19003706E-1,5.5557396E-2,-5.6613553E-2,3.8921162E-2,4.3899828E-1,2.1080984E-1,5.6156393E-2,1.7774378E-1,2.639524E-1,4.4247457E-1,-1.9675489E-1,6.6063695E-2,3.064558E-1,1.8523066E-1,1.7075789E-1,2.549764E-1,2.999416E-1,4.4601652E-1,2.71193E-1,3.3971566E-1,3.823171E-1,5.248239E-1],"split_indices":[3,3,3,3,5,6,3,3,5,6,6,5,5,5,3,0,0,6,6,6,4,6,5,6,4,2,5,4,5,6,3,0,0,4,4,0,0,5,3,2,5,4,6,0,4,2,5,4,0,4,5,5,1,2,5,2,6,0,0,0,0,0,0,0,0,0,0,0,0,0,0,0,0,0,0,0,0,0,0,0,0,0,0,0,0,0,0,0,0,0,0,0,0,0,0,0,0,0,0,0,0,0,0],"split_type":[0,0,0,0,0,0,0,0,0,0,0,0,0,0,0,0,0,0,0,0,0,0,0,0,0,0,0,0,0,0,0,0,0,0,0,0,0,0,0,0,0,0,0,0,0,0,0,0,0,0,0,0,0,0,0,0,0,0,0,0,0,0,0,0,0,0,0,0,0,0,0,0,0,0,0,0,0,0,0,0,0,0,0,0,0,0,0,0,0,0,0,0,0,0,0,0,0,0,0,0,0,0,0],"sum_hessian":[5.692E3,1.55E3,4.142E3,5.72E2,9.78E2,2.592E3,1.55E3,8.8E1,4.84E2,2.89E2,6.89E2,3.15E2,2.277E3,1.097E3,4.53E2,2.2E1,6.6E1,6.2E1,4.22E2,6.4E1,2.25E2,3.49E2,3.4E2,6.6E1,2.49E2,1.976E3,3.01E2,3.37E2,7.6E2,3.36E2,1.17E2,5.9E1,3E0,3.36E2,8.6E1,1.1E1,5.3E1,2.16E2,9E0,1.06E2,2.43E2,1.89E2,1.51E2,1.2E1,5.4E1,1.64E2,8.5E1,1.917E3,5.9E1,2.54E2,4.7E1,2.76E2,6.1E1,6.19E2,1.41E2,2.87E2,4.9E1,9.3E1,2.4E1,2E0,1E0,3.7E1,2.99E2,5.7E1,2.9E1,7E0,2.09E2,7E0,2E0,9.5E1,1.1E1,2.38E2,5E0,1.23E2,6.6E1,1.46E2,5E0,1.7E1,3.7E1,1.59E2,5E0,2.1E1,6.4E1,4.71E2,1.446E3,1.6E1,4.3E1,6.5E1,1.89E2,3.2E1,1.5E1,1.8E1,2.58E2,2.3E1,3.8E1,4.51E2,1.68E2,1.13E2,2.8E1,1.52E2,1.35E2,3.8E1,1.1E1],"tree_param":{"num_deleted":"0","num_feature":"7","num_nodes":"103","size_leaf_vector":"1"}},{"base_weights":[-6.947203E-4,-4.6735197E-1,3.171615E-1,-1.0662769E0,-2.9635146E-1,1.8515128E-1,7.5667745E-1,-1.6409706E0,-9.431307E-1,-7.732735E-1,-1.6867179E-1,7.4563846E-2,4.3606484E-1,6.5482527E-1,1.1485351E0,-6.3411963E-1,-1.4638864E0,-1.2120454E0,-8.2793903E-1,-9.053712E-1,-3.573025E-1,-3.2068568E-1,8.894694E-2,-1.0049835E0,8.840894E-2,3.7037298E-1,8.109326E-1,4.6459574E-1,7.251882E-1,1.0220685E0,4.472005E-1,-1.4953496E0,-7.6837796E-1,-1.4790229E0,-1.0960428E0,-1.1870446E0,-7.565358E-1,-1.4220037E0,-8.303218E-1,-5.4010653E-1,1.0955585E-1,-6.0362065E-1,-2.28277E-1,2.3876812E-2,7.6883507E-1,-1.2220848E0,3.3176827E-1,5.9168372E-2,4.9076313E-1,3.5064456E-1,1.0382596E0,7.647783E-1,4.049869E-1,3.7493196E-1,9.2891616E-1,6.9286865E-1,3.3465967E-1,2.2664149E-1,1.0336297E0,-4.5394337E-1,-1.8874212E-1,-3.3951175E-1,-4.4677258E-2,-1.2906855E-1,-4.491648E-1,-3.3640558E-1,-7.956947E-2,-1.4265896E-1,-3.7761602E-1,-2.3842745E-1,-9.572286E-2,-5.376169E-1,-3.67495E-1,-3.06901E-1,-2.1357955E-1,-2.846181E-1,-1.21197164E-1,-1.157302E-1,1.0152496E-1,-3.8395783E-1,-1.6211206E-1,-8.180011E-2,8.593062E-2,-3.0722101E-3,2.4375103E-1,1.9493218E-1,4.3628412E-1,-4.144294E-1,-2.1864252E-1,1.14313275E-1,2.7591063E-2,-7.159524E-2,2.7212122E-2,5.1547978E-2,1.7820565E-1,9.066396E-2,1.8054894E-1,3.2217237E-1,5.948868E-2,2.1128105E-1,3.062095E-1,3.792011E-2,1.7967281E-1,2.9302365E-1,6.620994E-2,1.8695967E-1,2.4399498E-1,1.5351735E-1,-5.152867E-2,2.9688084E-1,3.939322E-1],"categories":[],"categories_nodes":[],"categories_segments":[],"categories_sizes":[],"default_left":[0,0,0,0,0,0,0,0,0,0,0,0,0,0,0,0,0,0,0,0,0,0,0,0,0,0,0,0,0,0,0,0,0,0,0,0,0,0,0,0,0,0,0,0,0,0,0,0,0,0,0,0,0,0,0,0,0,0,0,0,0,0,0,0,0,0,0,0,0,0,0,0,0,0,0,0,0,0,0,0,0,0,0,0,0,0,0,0,0,0,0,0,0,0,0,0,0,0,0,0,0,0,0,0,0,0,0,0,0,0,0],"id":2,"left_children":[1,3,5,7,9,11,13,15,17,19,21,23,25,27,29,-1,31,33,35,37,39,41,43,45,47,49,51,53,55,57,-1,59,61,63,65,67,69,71,73,75,77,79,81,83,85,87,89,91,93,95,97,99,-1,101,103,105,-1,107,109,-1,-1,-1,-1,-1,-1,-1,-1,-1,-1,-1,-1,-1,-1,-1,-1,-1,-1,-1,-1,-1,-1,-1,-1,-1,-1,-1,-1,-1,-1,-1,-1,-1,-1,-1,-1,-1,-1,-1,-1,-1,-1,-1,-1,-1,-1,-1,-1,-1,-1,-1,-1],"loss_changes":[8.4459045E2,2.3595874E2,1.9637561E2,3.4687317E1,1.0923387E2,7.227847E1,3.045877E1,4.3566895E0,1.2130615E1,2.0502121E1,5.5559708E1,2.71419E1,1.932637E1,8.001984E0,5.3993683E0,0E0,3.390503E-1,2.2501984E0,6.794342E0,9.947128E0,7.996125E0,2.318412E1,2.3296335E1,7.080288E0,2.1006895E1,8.595863E0,1.9032211E0,6.770916E0,4.9420166E0,8.692627E-1,0E0,3.453064E-2,9.5678544E-1,2.368164E-2,1.6160431E0,1.8493576E0,3.9767609E0,3.5653687E-1,5.0430145E0,3.3432484E0,3.19127E0,8.675056E0,1.5477711E1,1.2977003E1,2.809101E0,5.6524086E-1,1.2220383E-2,1.5688885E1,3.8827076E0,7.8715057E0,3.559723E-1,1.0000153E0,0E0,7.9957905E0,6.990185E-1,3.026001E0,0E0,4.2862934E-1,1.5248108E-1,0E0,0E0,0E0,0E0,0E0,0E0,0E0,0E0,0E0,0E0,0E0,0E0,0E0,0E0,0E0,0E0,0E0,0E0,0E0,0E0,0E0,0E0,0E0,0E0,0E0,0E0,0E0,0E0,0E0,0E0,0E0,0E0,0E0,0E0,0E0,0E0,0E0,0E0,0E0,0E0,0E0,0E0,0E0,0E0,0E0,0E0,0E0,0E0,0E0,0E0,0E0,0E0],"parents":[2147483647,0,0,1,1,2,2,3,3,4,4,5,5,6,6,7,7,8,8,9,9,10,10,11,11,12,12,13,13,14,14,16,16,17,17,18,18,19,19,20,20,21,21,22,22,23,23,24,24,25,25,26,26,27,27,28,28,29,29,31,31,32,32,33,33,34,34,35,35,36,36,37,37,38,38,39,39,40,40,41,41,42,42,43,43,44,44,45,45,46,46,47,47,48,48,49,49,50,50,51,51,53,53,54,54,55,55,57,57,58,58],"right_children":[2,4,6,8,10,12,14,16,18,20,22,24,26,28,30,-1,32,34,36,38,40,42,44,46,48,50,52,54,56,58,-1,60,62,64,66,68,70,72,74,76,78,80,82,84,86,88,90,92,94,96,98,100,-1,102,104,106,-1,108,110,-1,-1,-1,-1,-1,-1,-1,-1,-1,-1,-1,-1,-1,-1,-1,-1,-1,-1,-1,-1,-1,-1,-1,-1,-1,-1,-1,-1,-1,-1,-1,-1,-1,-1,-1,-1,-1,-1,-1,-1,-1,-1,-1,-1,-1,-1,-1,-1,-1,-1,-1,-1],"split_conditions":[5.93E0,4.85E0,6.957143E0,3.5E0,4.8033333E0,6.425E0,7.8E0,2.7E0,4.3E0,5.752E0,5.9428573E0,4.55E0,7E0,6.34E0,8.4E0,-6.3411963E-1,5.9428573E0,3.6E0,4.1E0,4E0,6E0,5.0416665E0,6.9E0,6.0666666E0,6.75E0,2.5005E4,8E0,1.4888E4,7.8E0,5.4891567E0,4.472005E-1,6.4363637E0,2.015E3,8.8E1,1.57E2,1.09E2,6.090909E0,3.1E0,1.33E2,5.2E0,1.04E2,4.2E0,6.5E0,6.418E3,8E0,4.3E0,2.007E3,5.34E0,6.214286E0,6.9E0,6.75E0,2.639E3,4.049869E-1,6.309091E0,6.9333334E0,5.03E2,3.3465967E-1,2.004E3,8.4E0,-4.5394337E-1,-1.8874212E-1,-3.3951175E-1,-4.4677258E-2,-1.2906855E-1,-4.491648E-1,-3.3640558E-1,-7.956947E-2,-1.4265896E-1,-3.7761602E-1,-2.3842745E-1,-9.572286E-2,-5.376169E-1,-3.67495E-1,-3.06901E-1,-2.1357955E-1,-2.846181E-1,-1.21197164E-1,-1.157302E-1,1.0152496E-1,-3.8395783E-1,-1.6211206E-1,-8.180011E-2,8.593062E-2,-3.0722101E-3,2.4375103E-1,1.9493218E-1,4.3628412E-1,-4.144294E-1,-2.1864252E-1,1.14313275E-1,2.7591063E-2,-7.159524E-2,2.7212122E-2,5.1547978E-2,1.7820565E-1,9.066396E-2,1.8054894E-1,3.2217237E-1,5.948868E-2,2.1128105E-1,3.062095E-1,3.792011E-2,1.7967281E-1,2.9302365E-1,6.620994E-2,1.8695967E-1,2.4399498E-1,1.5351735E-1,-5.152867E-2,2.9688084E-1,3.939322E-1],"split_indices":[3,5,3,5,3,6,3,5,4,6,6,4,5,6,5,0,6,4,3,4,4,6,6,5,5,2,4,2,6,4,0,4,0,1,1,1,6,4,1,5,2,4,5,2,6,4,0,6,3,4,5,2,0,5,5,2,0,0,3,0,0,0,0,0,0,0,0,0,0,0,0,0,0,0,0,0,0,0,0,0,0,0,0,0,0,0,0,0,0,0,0,0,0,0,0,0,0,0,0,0,0,0,0,0,0,0,0,0,0,0,0],"split_type":[0,0,0,0,0,0,0,0,0,0,0,0,0,0,0,0,0,0,0,0,0,0,0,0,0,0,0,0,0,0,0,0,0,0,0,0,0,0,0,0,0,0,0,0,0,0,0,0,0,0,0,0,0,0,0,0,0,0,0,0,0,0,0,0,0,0,0,0,0,0,0,0,0,0,0,0,0,0,0,0,0,0,0,0,0,0,0,0,0,0,0,0,0,0,0,0,0,0,0,0,0,0,0,0,0,0,0,0,0,0,0],"sum_hessian":[5.692E3,2.306E3,3.386E3,5.11E2,1.795E3,2.605E3,7.81E2,8.8E1,4.23E2,3.78E2,1.417E3,1.809E3,7.96E2,6.22E2,1.59E2,2.1E1,6.7E1,1.24E2,2.99E2,2.86E2,9.2E1,8.91E2,5.26E2,2.2E1,1.787E3,6.79E2,1.17E2,1.7E2,4.52E2,1.19E2,4E1,6.3E1,4E0,3.4E1,9E1,4.7E1,2.52E2,3.4E1,2.52E2,6.6E1,2.6E1,2.18E2,6.73E2,4.81E2,4.5E1,1.9E1,3E0,1.667E3,1.2E2,6.61E2,1.8E1,1.1E2,7E0,1.44E2,2.6E1,4.2E2,3.2E1,2E0,1.17E2,6.1E1,2E0,2E0,2E0,1E0,3.3E1,8.7E1,3E0,5E0,4.2E1,2.31E2,2.1E1,9E0,2.5E1,9.3E1,1.59E2,1.5E1,5.1E1,8E0,1.8E1,1.7E1,2.01E2,6.2E2,5.3E1,4.62E2,1.9E1,4E1,5E0,1.3E1,6E0,2E0,1E0,1.59E2,1.508E3,3E1,9E1,5.56E2,1.05E2,1.7E1,1E0,9.2E1,1.8E1,6.9E1,7.5E1,2.4E1,2E0,2.7E2,1.5E2,1E0,1E0,1.05E2,1.2E1],"tree_param":{"num_deleted":"0","num_feature":"7","num_nodes":"111","size_leaf_vector":"1"}},{"base_weights":[-6.923916E-4,-3.9786142E-1,1.8604799E-1,-8.56077E-1,-2.827986E-1,1.2399809E-3,3.8564393E-1,-1.2487986E0,-7.360604E-1,-5.464601E-1,-1.19962E-1,-4.0809128E-1,4.1926518E-2,3.271426E-1,7.54711E-1,-1.4252851E0,-3.1925118E-1,-4.065407E-1,-6.937283E-1,-8.296013E-1,-4.699283E-1,-2.0800796E-1,2.1107343E-1,-3.3009642E-1,-3.3010197E-1,2.1159783E-2,6.5453863E-1,2.5785345E-1,4.80756E-1,6.7342025E-1,3.3518896E-1,-3.454734E-1,-4.8542634E-1,-7.221742E-1,-3.6179188E-1,-1.0853711E0,-7.0252615E-1,-1.0042098E0,-4.3532288E-1,-3.0222282E-1,2.6935332E-2,7.530694E-1,-1.3353148E-1,-6.648714E-1,-2.2813839E-1,-1.031359E-2,3.1975228E-1,7.285992E-1,-1.3343962E-1,1.9113673E-1,4.1051695E-1,4.286119E-1,7.0677817E-1,6.7901695E-1,6.0908157E-2,-2.4400254E-1,-1.8537995E-1,8.775023E-2,-2.1907441E-1,-3.3860534E-1,-1.3375968E-1,-2.6170197E-1,-1.0498145E-1,-3.354325E-1,-1.3145901E-1,-1.3374853E-1,2.2667317E-1,-2.2479653E-1,-7.843584E-2,-5.8345117E-2,3.6624447E-2,4.1001175E-2,2.6105043E-1,-1.3657646E-1,6.393349E-2,2.8235676E-2,-2.6112184E-1,-1.9015518E-1,-4.9356036E-2,-6.561377E-2,7.793107E-3,7.897429E-2,3.3222976E-1,2.3025475E-1,-6.053834E-2,-2.5300747E-1,1.2970777E-1,9.160758E-3,8.095027E-2,1.1638924E-1,2.709395E-1,1.5017138E-1,8.7086886E-2,1.143234E-1,2.2810547E-1,2.358303E-1,1.9176742E-1,1.3279167E-1,-1.05382994E-1],"categories":[],"categories_nodes":[],"categories_segments":[],"categories_sizes":[],"default_left":[0,0,0,0,0,0,0,0,0,0,0,0,0,0,0,0,0,0,0,0,0,0,0,0,0,0,0,0,0,0,0,0,0,0,0,0,0,0,0,0,0,0,0,0,0,0,0,0,0,0,0,0,0,0,0,0,0,0,0,0,0,0,0,0,0,0,0,0,0,0,0,0,0,0,0,0,0,0,0,0,0,0,0,0,0,0,0,0,0,0,0,0,0,0,0,0,0,0,0],"id":3,"left_children":[1,3,5,7,9,11,13,15,17,19,21,23,25,27,29,31,-1,-1,33,35,37,39,41,-1,43,45,47,49,51,53,-1,-1,-1,55,57,59,61,63,65,67,69,71,73,75,77,79,81,83,85,87,89,91,93,95,97,-1,-1,-1,-1,-1,-1,-1,-1,-1,-1,-1,-1,-1,-1,-1,-1,-1,-1,-1,-1,-1,-1,-1,-1,-1,-1,-1,-1,-1,-1,-1,-1,-1,-1,-1,-1,-1,-1,-1,-1,-1,-1,-1,-1],"loss_changes":[4.223096E2,9.576758E1,1.428626E2,1.6284393E1,6.24889E1,3.3525505E1,3.9955414E1,1.2203217E0,6.4502106E0,1.1658264E1,2.6333893E1,9.462334E0,2.3280045E1,1.7001816E1,6.734192E0,2.4750519E-1,0E0,0E0,2.250351E0,3.0402374E0,7.698021E0,1.5790506E1,3.5587708E1,0E0,5.4804745E0,1.6656046E1,3.598709E0,1.1237297E1,5.5781403E0,6.7853546E-1,0E0,0E0,0E0,1.8162384E0,5.758395E0,5.216217E-1,4.544548E0,1.1862144E0,5.5289307E0,9.08226E0,4.3425126E0,5.222355E0,1.3145233E1,6.009878E0,3.1994896E0,1.2136616E1,7.2302513E0,2.1463108E0,2.7746606E0,9.786894E0,3.3936386E0,3.9157486E0,1.3155441E0,3.8381195E-1,6.275194E-1,0E0,0E0,0E0,0E0,0E0,0E0,0E0,0E0,0E0,0E0,0E0,0E0,0E0,0E0,0E0,0E0,0E0,0E0,0E0,0E0,0E0,0E0,0E0,0E0,0E0,0E0,0E0,0E0,0E0,0E0,0E0,0E0,0E0,0E0,0E0,0E0,0E0,0E0,0E0,0E0,0E0,0E0,0E0,0E0],"parents":[2147483647,0,0,1,1,2,2,3,3,4,4,5,5,6,6,7,7,8,8,9,9,10,10,11,11,12,12,13,13,14,14,15,15,18,18,19,19,20,20,21,21,22,22,24,24,25,25,26,26,27,27,28,28,29,29,33,33,34,34,35,35,36,36,37,37,38,38,39,39,40,40,41,41,42,42,43,43,44,44,45,45,46,46,47,47,48,48,49,49,50,50,51,51,52,52,53,53,54,54],"right_children":[2,4,6,8,10,12,14,16,18,20,22,24,26,28,30,32,-1,-1,34,36,38,40,42,-1,44,46,48,50,52,54,-1,-1,-1,56,58,60,62,64,66,68,70,72,74,76,78,80,82,84,86,88,90,92,94,96,98,-1,-1,-1,-1,-1,-1,-1,-1,-1,-1,-1,-1,-1,-1,-1,-1,-1,-1,-1,-1,-1,-1,-1,-1,-1,-1,-1,-1,-1,-1,-1,-1,-1,-1,-1,-1,-1,-1,-1,-1,-1,-1,-1,-1],"split_conditions":[5.6666665E0,4.575862E0,6.27E0,3.4E0,5.225E0,5.1307693E0,7.35E0,3.1E0,3.3E0,4.2E0,2.42E3,4.3E0,7.329E3,6.9727273E0,8.4E0,3E0,-3.1925118E-1,-4.065407E-1,1.72E3,3.6E0,4E0,6.1E0,2.008E3,-3.3009642E-1,4.366667E0,6.6518517E0,3.1937E4,6.675E0,7.5529413E0,1.76E2,3.3518896E-1,-3.454734E-1,-4.8542634E-1,2.01E3,2.009E3,5.45E0,5.181818E0,5.025E0,6.617647E0,4.5333333E0,3.9E1,5.075E0,6.2285714E0,1.994E3,1.7E1,5.625E0,7.5E0,2.02E3,5.742857E0,6.175E0,7.8E0,2.01E3,6.3428574E0,6.5833335E0,1.961E3,-2.4400254E-1,-1.8537995E-1,8.775023E-2,-2.1907441E-1,-3.3860534E-1,-1.3375968E-1,-2.6170197E-1,-1.0498145E-1,-3.354325E-1,-1.3145901E-1,-1.3374853E-1,2.2667317E-1,-2.2479653E-1,-7.843584E-2,-5.8345117E-2,3.6624447E-2,4.1001175E-2,2.6105043E-1,-1.3657646E-1,6.393349E-2,2.8235676E-2,-2.6112184E-1,-1.9015518E-1,-4.9356036E-2,-6.561377E-2,7.793107E-3,7.897429E-2,3.3222976E-1,2.3025475E-1,-6.053834E-2,-2.5300747E-1,1.2970777E-1,9.160758E-3,8.095027E-2,1.1638924E-1,2.709395E-1,1.5017138E-1,8.7086886E-2,1.143234E-1,2.2810547E-1,2.358303E-1,1.9176742E-1,1.3279167E-1,-1.05382994E-1],"split_indices":[4,4,3,4,3,6,4,4,6,3,2,5,2,3,4,6,0,0,2,3,5,5,0,0,6,4,2,6,3,1,0,0,0,0,0,4,6,3,5,5,2,6,3,0,2,5,4,0,6,5,6,0,4,6,0,0,0,0,0,0,0,0,0,0,0,0,0,0,0,0,0,0,0,0,0,0,0,0,0,0,0,0,0,0,0,0,0,0,0,0,0,0,0,0,0,0,0,0,0],"split_type":[0,0,0,0,0,0,0,0,0,0,0,0,0,0,0,0,0,0,0,0,0,0,0,0,0,0,0,0,0,0,0,0,0,0,0,0,0,0,0,0,0,0,0,0,0,0,0,0,0,0,0,0,0,0,0,0,0,0,0,0,0,0,0,0,0,0,0,0,0,0,0,0,0,0,0,0,0,0,0,0,0,0,0,0,0,0,0,0,0,0,0,0,0,0,0,0,0,0,0],"sum_hessian":[5.692E3,1.82E3,3.872E3,3.64E2,1.456E3,2.011E3,1.861E3,8.3E1,2.81E2,5.55E2,9.01E2,1.81E2,1.83E3,1.608E3,2.53E2,3.9E1,4.4E1,1.6E1,2.65E2,1.16E2,4.39E2,7.12E2,1.89E2,1.7E1,1.64E2,1.771E3,5.9E1,1.11E3,4.98E2,2.09E2,4.4E1,1.9E1,2E1,2.43E2,2.2E1,3.6E1,8E1,2.5E1,4.14E2,5.08E2,2.04E2,7.3E1,1.16E2,3.7E1,1.27E2,1.603E3,1.68E2,5.4E1,5E0,7.74E2,3.36E2,4.07E2,9.1E1,2.07E2,2E0,1.26E2,1.17E2,8E0,1.4E1,3.3E1,3E0,5.3E1,2.7E1,2E1,5E0,4.11E2,3E0,4.1E1,4.67E2,6.1E1,1.43E2,1.2E1,6.1E1,6E1,5.6E1,8E0,2.9E1,1.6E1,1.11E2,2.37E2,1.366E3,1.58E2,1E1,5.2E1,2E0,2E0,3E0,2.55E2,5.19E2,3.23E2,1.3E1,2.66E2,1.41E2,1.4E1,7.7E1,5.1E1,1.56E2,1E0,1E0],"tree_param":{"num_deleted":"0","num_feature":"7","num_nodes":"99","size_leaf_vector":"1"}},{"base_weights":[-8.326575E-4,-3.6218187E-1,1.0490627E-1,-6.6126597E-1,-2.885047E-1,3.176243E-2,3.6286914E-1,-2.717132E-1,-5.907374E-1,-6.483621E-1,-2.4374603E-1,-3.5737064E-1,6.69708E-2,3.0224472E-1,5.971458E-1,-1.0752144E0,-5.540941E-1,-7.8828543E-1,-5.225784E-1,-4.1239625E-1,-1.7338163E-1,-9.274173E-1,-3.0378863E-1,4.4281095E-2,4.5465815E-1,2.4700885E-1,4.2811865E-1,5.3807336E-1,9.38693E-1,-3.3707297E-1,-7.423035E-2,-5.291398E-1,-9.9161327E-1,-9.565655E-1,-6.6241E-1,-2.6062906E-1,-5.9900784E-1,-4.2861456E-1,3.5379365E-1,-2.0560722E-1,1.8789124E-1,-1.0397794E0,-1.0566193E-1,-5.523805E-1,-2.3352881E-1,-3.424619E-2,1.5110785E-1,7.2359926E-1,2.7949315E-1,1.9670309E-1,3.6452118E-1,6.7870337E-1,2.7893078E-1,6.85527E-1,1.4600721E-1,1.5302926E-1,2.9666144E-1,-1.6257128E-1,-4.0878393E-2,-1.2904796E-1,-3.60194E-1,-1.8565083E-1,-3.9017597E-1,-9.747108E-2,-2.3263119E-1,-1.3764645E-1,4.3848563E-2,-1.3194872E-1,-2.6696283E-1,-2.6265413E-1,-1.13771275E-1,-8.988212E-2,-2.6882656E-2,2.2853531E-1,-7.874222E-2,-1.8804394E-1,-3.388967E-1,-8.831242E-2,6.9071464E-2,-8.265477E-2,-2.1186951E-1,8.1955805E-2,-8.242604E-2,-1.2979269E-1,-4.8845285E-3,3.8856715E-2,1.5495567E-1,2.4265532E-1,1.4356573E-1,-4.175276E-2,1.1873568E-1,4.8665952E-2,1.2352694E-1,1.7818888E-1,9.6593045E-2,-2.1068216E-3,2.1098316E-1,6.442747E-2,1.645734E-1,2.6352265E-1,1.5576932E-1],"categories":[],"categories_nodes":[],"categories_segments":[],"categories_sizes":[],"default_left":[0,0,0,0,0,0,0,0,0,0,0,0,0,0,0,0,0,0,0,0,0,0,0,0,0,0,0,0,0,0,0,0,0,0,0,0,0,0,0,0,0,0,0,0,0,0,0,0,0,0,0,0,0,0,0,0,0,0,0,0,0,0,0,0,0,0,0,0,0,0,0,0,0,0,0,0,0,0,0,0,0,0,0,0,0,0,0,0,0,0,0,0,0,0,0,0,0,0,0,0,0],"id":4,"left_children":[1,3,5,7,9,11,13,-1,15,17,19,21,23,25,27,29,31,33,35,37,39,41,43,45,47,49,51,53,55,-1,-1,57,59,61,63,65,67,69,-1,71,73,75,77,79,81,83,85,87,89,91,93,95,97,99,-1,-1,-1,-1,-1,-1,-1,-1,-1,-1,-1,-1,-1,-1,-1,-1,-1,-1,-1,-1,-1,-1,-1,-1,-1,-1,-1,-1,-1,-1,-1,-1,-1,-1,-1,-1,-1,-1,-1,-1,-1,-1,-1,-1,-1,-1,-1],"loss_changes":[2.1755998E2,2.8213196E1,8.310376E1,3.8440094E0,1.6528542E1,4.7058586E1,1.3638931E1,0E0,2.9548035E0,1.5944672E0,1.0881706E1,8.42337E0,2.7680084E1,5.2826385E0,3.509941E0,2.4241924E-1,1.5278778E0,4.678421E-1,1.1051788E0,7.5012894E0,7.6410084E0,2.1061554E0,4.4471016E0,2.497029E1,7.9947395E0,3.126442E0,8.595978E0,9.695282E-1,9.775543E-2,0E0,0E0,8.288307E-1,5.39793E-1,1.5188713E0,1.0069227E0,1.3570284E0,1.8310108E0,5.6038704E0,0E0,6.5154514E0,1.4156872E1,7.13501E-2,3.2133088E-1,2.2333908E0,4.3782206E0,1.2274298E1,9.879326E0,1.0334854E0,5.264703E0,2.758603E0,1.3803501E0,1.4709663E0,2.4604769E0,8.910713E-1,0E0,0E0,0E0,0E0,0E0,0E0,0E0,0E0,0E0,0E0,0E0,0E0,0E0,0E0,0E0,0E0,0E0,0E0,0E0,0E0,0E0,0E0,0E0,0E0,0E0,0E0,0E0,0E0,0E0,0E0,0E0,0E0,0E0,0E0,0E0,0E0,0E0,0E0,0E0,0E0,0E0,0E0,0E0,0E0,0E0,0E0,0E0],"parents":[2147483647,0,0,1,1,2,2,3,3,4,4,5,5,6,6,8,8,9,9,10,10,11,11,12,12,13,13,14,14,15,15,16,16,17,17,18,18,19,19,20,20,21,21,22,22,23,23,24,24,25,25,26,26,27,27,28,28,31,31,32,32,33,33,34,34,35,35,36,36,37,37,39,39,40,40,41,41,42,42,43,43,44,44,45,45,46,46,47,47,48,48,49,49,50,50,51,51,52,52,53,53],"right_children":[2,4,6,8,10,12,14,-1,16,18,20,22,24,26,28,30,32,34,36,38,40,42,44,46,48,50,52,54,56,-1,-1,58,60,62,64,66,68,70,-1,72,74,76,78,80,82,84,86,88,90,92,94,96,98,100,-1,-1,-1,-1,-1,-1,-1,-1,-1,-1,-1,-1,-1,-1,-1,-1,-1,-1,-1,-1,-1,-1,-1,-1,-1,-1,-1,-1,-1,-1,-1,-1,-1,-1,-1,-1,-1,-1,-1,-1,-1,-1,-1,-1,-1,-1,-1],"split_conditions":[5.35E0,4.3157897E0,6.6518517E0,3.3E0,4.327273E0,5.109091E0,7.6E0,-2.717132E-1,3.2E0,3.8E0,5.09434E0,3.9E0,9.06E3,5.22E2,8.7E0,5E0,3.723E3,2.005E3,5.0333333E0,6.85E0,5.93E3,4.464E3,2.5E1,6.2755103E0,2.009E3,6.9166665E0,2.007E3,7.072727E0,7E0,-3.3707297E-1,-7.423035E-2,6.048E0,5.09434E0,2.002E3,2.007E3,4.9E0,1.87E2,3.8E0,3.5379365E-1,5.6E0,2.009E3,4.3E1,1.61E2,4.425E0,1.989E3,4.85E0,7.4E0,6.2E0,6.15E0,6.9333334E0,1.956E3,5.1125E0,1.3576E4,6.5833335E0,1.4600721E-1,1.5302926E-1,2.9666144E-1,-1.6257128E-1,-4.0878393E-2,-1.2904796E-1,-3.60194E-1,-1.8565083E-1,-3.9017597E-1,-9.747108E-2,-2.3263119E-1,-1.3764645E-1,4.3848563E-2,-1.3194872E-1,-2.6696283E-1,-2.6265413E-1,-1.13771275E-1,-8.988212E-2,-2.6882656E-2,2.2853531E-1,-7.874222E-2,-1.8804394E-1,-3.388967E-1,-8.831242E-2,6.9071464E-2,-8.265477E-2,-2.1186951E-1,8.1955805E-2,-8.242604E-2,-1.2979269E-1,-4.8845285E-3,3.8856715E-2,1.5495567E-1,2.4265532E-1,1.4356573E-1,-4.175276E-2,1.1873568E-1,4.8665952E-2,1.2352694E-1,1.7818888E-1,9.6593045E-2,-2.1068216E-3,2.1098316E-1,6.442747E-2,1.645734E-1,2.6352265E-1,1.5576932E-1],"split_indices":[3,6,4,6,5,6,4,0,3,5,4,6,2,2,4,4,2,0,6,5,2,2,2,5,0,6,0,3,2,0,0,4,4,0,0,6,2,4,0,5,0,2,1,6,0,5,3,4,3,5,0,5,2,6,0,0,0,0,0,0,0,0,0,0,0,0,0,0,0,0,0,0,0,0,0,0,0,0,0,0,0,0,0,0,0,0,0,0,0,0,0,0,0,0,0,0,0,0,0,0,0],"split_type":[0,0,0,0,0,0,0,0,0,0,0,0,0,0,0,0,0,0,0,0,0,0,0,0,0,0,0,0,0,0,0,0,0,0,0,0,0,0,0,0,0,0,0,0,0,0,0,0,0,0,0,0,0,0,0,0,0,0,0,0,0,0,0,0,0,0,0,0,0,0,0,0,0,0,0,0,0,0,0,0,0,0,0,0,0,0,0,0,0,0,0,0,0,0,0,0,0,0,0,0,0],"sum_hessian":[5.692E3,1.288E3,4.404E3,2.53E2,1.035E3,3.432E3,9.72E2,5.4E1,1.99E2,1.13E2,9.22E2,2.84E2,3.148E3,7.74E2,1.98E2,1.2E1,1.87E2,5.1E1,6.2E1,2.7E2,6.52E2,2.3E1,2.61E2,2.975E3,1.73E2,5.4E2,2.34E2,1.71E2,2.7E1,1.1E1,1E0,1.79E2,8E0,1.9E1,3.2E1,1.5E1,4.7E1,2.68E2,2E0,5.99E2,5.3E1,2E1,3E0,5.6E1,2.05E2,1.715E3,1.26E3,6.7E1,1.06E2,3.8E2,1.6E2,8.6E1,1.48E2,4.1E1,1.3E2,4E0,2.3E1,1.73E2,6E0,3E0,5E0,1.1E1,8E0,9E0,2.3E1,1E1,5E0,3.2E1,1.5E1,2.5E1,2.43E2,3.3E2,2.69E2,2.3E1,3E1,5E0,1.5E1,2E0,1E0,2.1E1,3.5E1,1.5E1,1.9E2,7.3E1,1.642E3,1.191E3,6.9E1,4.8E1,1.9E1,2.3E1,8.3E1,3.29E2,5.1E1,2.3E1,1.37E2,3E0,8.3E1,1.21E2,2.7E1,1.7E1,2.4E1],"tree_param":{"num_deleted":"0","num_feature":"7","num_nodes":"101","size_leaf_vector":"1"}},{"base_weights":[-7.9054816E-4,-1.8783645E-1,1.087495E-1,-4.3596646E-1,-1.2839675E-1,-5.9945476E-3,1.967869E-1,-7.0682687E-1,-3.8879195E-1,-1.7983401E-1,7.311486E-2,-2.857652E-1,1.8574856E-2,1.6674487E-1,3.7523335E-1,-2.6458445E-1,-5.868402E-1,-3.7826854E-1,-4.4186848E-1,-2.728827E-1,-5.9761476E-2,4.0054706E-1,-1.3321862E-1,-4.2363203E-1,-9.798255E-3,-1.9086859E-1,4.244577E-2,1.0647496E-1,2.6874036E-1,3.2875082E-1,6.046706E-1,-6.45581E-1,-1.6595893E-1,-7.90146E-1,-3.5852024E-1,-6.560001E-1,-2.5298157E-1,-2.8516445E-1,3.033233E-3,6.736316E-1,2.685559E-1,-6.8083674E-1,-6.9776855E-2,-3.801392E-1,-2.7770457E-1,-4.5519727E-1,8.945148E-2,-2.4241716E-1,1.1303999E-1,2.5350865E-2,3.004757E-1,1.6187462E-1,-4.2420343E-2,4.5973507E-1,1.8330131E-1,4.42125E-1,3.01733E-1,2.6364386E-1,4.9941716E-1,-1.5824115E-1,-2.3045926E-1,-1.2593774E-1,6.8341635E-2,-2.5459665E-1,4.3479684E-3,-8.371835E-2,-1.3032791E-1,-2.0885415E-1,1.1857417E-1,-1.3947953E-1,-6.8354756E-2,-9.263654E-2,2.4299192E-1,-4.626778E-2,2.990147E-2,9.61794E-2,2.3126894E-1,3.7971128E-2,1.717928E-1,-1.448702E-2,-2.4561599E-1,-5.5165835E-2,7.7391356E-2,-1.9254896E-1,-8.771917E-2,3.1647395E-2,-1.9790262E-1,-1.02246605E-1,7.3649704E-2,-5.0238464E-2,-1.4001535E-1,-2.3955181E-2,1.0574813E-1,3.213622E-2,-1.0273943E-3,1.16341196E-1,-3.1140158E-2,1.9430463E-3,5.863545E-2,-2.995232E-2,3.9822876E-2,9.6406534E-2,2.0527157E-1,4.18999E-2,1.4587563E-1,1.9498923E-1,1.04055375E-1,-9.174114E-2,9.188991E-2,1.0315934E-1,1.8860544E-1],"categories":[],"categories_nodes":[],"categories_segments":[],"categories_sizes":[],"default_left":[0,0,0,0,0,0,0,0,0,0,0,0,0,0,0,0,0,0,0,0,0,0,0,0,0,0,0,0,0,0,0,0,0,0,0,0,0,0,0,0,0,0,0,0,0,0,0,0,0,0,0,0,0,0,0,0,0,0,0,0,0,0,0,0,0,0,0,0,0,0,0,0,0,0,0,0,0,0,0,0,0,0,0,0,0,0,0,0,0,0,0,0,0,0,0,0,0,0,0,0,0,0,0,0,0,0,0,0,0,0,0],"id":5,"left_children":[1,3,5,7,9,11,13,15,17,19,21,23,25,27,29,-1,31,33,-1,35,37,39,41,43,45,47,49,51,53,55,57,59,61,63,65,67,69,71,73,75,77,79,81,83,-1,85,87,89,91,93,95,97,99,101,103,105,107,-1,109,-1,-1,-1,-1,-1,-1,-1,-1,-1,-1,-1,-1,-1,-1,-1,-1,-1,-1,-1,-1,-1,-1,-1,-1,-1,-1,-1,-1,-1,-1,-1,-1,-1,-1,-1,-1,-1,-1,-1,-1,-1,-1,-1,-1,-1,-1,-1,-1,-1,-1,-1,-1],"loss_changes":[1.1666441E2,3.0960701E1,3.6276623E1,4.912941E0,1.7613266E1,1.0728433E1,1.0830765E1,7.2215843E-1,3.4129944E0,1.5100208E1,2.3429195E1,4.789733E0,7.1825366E0,1.0673767E1,2.9153404E0,0E0,8.323307E-1,2.5310364E0,0E0,5.6438904E0,8.380099E0,4.649088E0,7.3525095E0,1.4822979E0,1.9415647E0,2.3303127E0,5.6781583E0,9.047496E0,1.0457424E1,6.170635E-1,9.461193E-1,7.271385E-2,6.953347E-1,7.184849E-1,1.8812027E0,1.838028E0,3.7613373E0,3.5875378E0,7.0669007E0,1.2293758E0,3.899703E0,1.8792496E0,7.2280607E0,1.6262693E0,0E0,9.8677814E-1,2.5008235E0,2.0402293E0,1.0442913E0,2.8474605E0,2.8646345E0,4.167736E0,3.0105367E0,5.962406E0,5.854311E0,6.656313E-1,6.5133095E-1,0E0,5.2781105E-1,0E0,0E0,0E0,0E0,0E0,0E0,0E0,0E0,0E0,0E0,0E0,0E0,0E0,0E0,0E0,0E0,0E0,0E0,0E0,0E0,0E0,0E0,0E0,0E0,0E0,0E0,0E0,0E0,0E0,0E0,0E0,0E0,0E0,0E0,0E0,0E0,0E0,0E0,0E0,0E0,0E0,0E0,0E0,0E0,0E0,0E0,0E0,0E0,0E0,0E0,0E0,0E0],"parents":[2147483647,0,0,1,1,2,2,3,3,4,4,5,5,6,6,7,7,8,8,9,9,10,10,11,11,12,12,13,13,14,14,16,16,17,17,19,19,20,20,21,21,22,22,23,23,24,24,25,25,26,26,27,27,28,28,29,29,30,30,31,31,32,32,33,33,34,34,35,35,36,36,37,37,38,38,39,39,40,40,41,41,42,42,43,43,45,45,46,46,47,47,48,48,49,49,50,50,51,51,52,52,53,53,54,54,55,55,56,56,58,58],"right_children":[2,4,6,8,10,12,14,16,18,20,22,24,26,28,30,-1,32,34,-1,36,38,40,42,44,46,48,50,52,54,56,58,60,62,64,66,68,70,72,74,76,78,80,82,84,-1,86,88,90,92,94,96,98,100,102,104,106,108,-1,110,-1,-1,-1,-1,-1,-1,-1,-1,-1,-1,-1,-1,-1,-1,-1,-1,-1,-1,-1,-1,-1,-1,-1,-1,-1,-1,-1,-1,-1,-1,-1,-1,-1,-1,-1,-1,-1,-1,-1,-1,-1,-1,-1,-1,-1,-1,-1,-1,-1,-1,-1,-1],"split_conditions":[5.8285713E0,4.6E0,6.1125E0,3.3E0,1.72E3,4.9666667E0,7.3E0,2.7E0,3.1937E4,5.7E0,2.007E3,5.8E0,2.2E1,1.64E2,8.4E0,-2.6458445E-1,5.366667E0,3.2E0,-4.4186848E-1,3.6E0,5.2785716E0,1.999E3,4.5E0,6.175E0,1.995E3,6.5733333E0,6.7E0,1.08E2,1.987E3,1.9E1,8.2E0,3.875E0,5.1E0,5.5E0,1.18E2,6.4333334E0,4.266667E0,6.85E0,4.1E1,2.528E3,5.124E3,4.8236365E0,1.3576E4,4.1222224E0,-2.7770457E-1,1.34E2,6E0,6.4166665E0,1.47E2,1.99E3,6.1E0,6.142857E0,1.22E2,6.89E2,2.1982E4,6.7615385E0,1.939E3,2.6364386E-1,8.8E0,-1.5824115E-1,-2.3045926E-1,-1.2593774E-1,6.8341635E-2,-2.5459665E-1,4.3479684E-3,-8.371835E-2,-1.3032791E-1,-2.0885415E-1,1.1857417E-1,-1.3947953E-1,-6.8354756E-2,-9.263654E-2,2.4299192E-1,-4.626778E-2,2.990147E-2,9.61794E-2,2.3126894E-1,3.7971128E-2,1.717928E-1,-1.448702E-2,-2.4561599E-1,-5.5165835E-2,7.7391356E-2,-1.9254896E-1,-8.771917E-2,3.1647395E-2,-1.9790262E-1,-1.02246605E-1,7.3649704E-2,-5.0238464E-2,-1.4001535E-1,-2.3955181E-2,1.0574813E-1,3.213622E-2,-1.0273943E-3,1.16341196E-1,-3.1140158E-2,1.9430463E-3,5.863545E-2,-2.995232E-2,3.9822876E-2,9.6406534E-2,2.0527157E-1,4.18999E-2,1.4587563E-1,1.9498923E-1,1.04055375E-1,-9.174114E-2,9.188991E-2,1.0315934E-1,1.8860544E-1],"split_indices":[4,5,3,5,2,3,5,5,2,6,0,6,2,2,5,0,6,3,0,4,3,0,6,5,0,6,5,2,0,2,3,6,4,6,2,5,3,5,2,2,2,4,2,3,0,1,4,5,1,0,3,6,2,2,2,3,0,0,3,0,0,0,0,0,0,0,0,0,0,0,0,0,0,0,0,0,0,0,0,0,0,0,0,0,0,0,0,0,0,0,0,0,0,0,0,0,0,0,0,0,0,0,0,0,0,0,0,0,0,0,0],"split_type":[0,0,0,0,0,0,0,0,0,0,0,0,0,0,0,0,0,0,0,0,0,0,0,0,0,0,0,0,0,0,0,0,0,0,0,0,0,0,0,0,0,0,0,0,0,0,0,0,0,0,0,0,0,0,0,0,0,0,0,0,0,0,0,0,0,0,0,0,0,0,0,0,0,0,0,0,0,0,0,0,0,0,0,0,0,0,0,0,0,0,0,0,0,0,0,0,0,0,0,0,0,0,0,0,0,0,0,0,0,0,0],"sum_hessian":[5.692E3,2.102E3,3.59E3,4.05E2,1.697E3,1.559E3,2.031E3,5.8E1,3.47E2,1.352E3,3.45E2,1.25E2,1.434E3,1.74E3,2.91E2,2.1E1,3.7E1,3.45E2,2E0,7.61E2,5.91E2,1.33E2,2.12E2,8.3E1,4.2E1,1.46E2,1.288E3,1.095E3,6.45E2,2.44E2,4.7E1,3.2E1,5E0,1.4E1,3.31E2,3.6E1,7.25E2,1.28E2,4.63E2,4.2E1,9.1E1,2.1E1,1.91E2,7.8E1,5E0,7E0,3.5E1,1.25E2,2.1E1,1.209E3,7.9E1,7.98E2,2.97E2,1.98E2,4.47E2,4.4E1,2E2,1.1E1,3.6E1,1.9E1,1.3E1,3E0,2E0,1.3E1,1E0,1.64E2,1.67E2,3.5E1,1E0,7.5E1,6.5E2,1.26E2,2E0,1.76E2,2.87E2,1E1,3.2E1,6.3E1,2.8E1,4E0,1.7E1,1.42E2,4.9E1,1.8E1,6E1,2E0,5E0,9E0,2.6E1,9.5E1,3E1,1.2E1,9E0,3.14E2,8.95E2,6.5E1,1.4E1,1.42E2,6.56E2,2.24E2,7.3E1,1.24E2,7.4E1,3.92E2,5.5E1,1.2E1,3.2E1,1E0,1.99E2,1.8E1,1.8E1],"tree_param":{"num_deleted":"0","num_feature":"7","num_nodes":"111","size_leaf_vector":"1"}},{"base_weights":[-6.9601706E-4,-1.4450759E-1,7.403091E-2,-1.9001758E-1,4.741021E-2,-6.056723E-3,1.3983265E-1,-3.339422E-1,-1.5244517E-1,-4.1218996E-1,9.015013E-2,-2.4537448E-2,2.256661E-1,1.0787653E-1,2.3860534E-1,-3.1438875E-1,-7.1708727E-1,-3.478211E-1,-1.3196255E-1,-9.4612435E-2,-5.9800583E-1,-1.0670159E-1,1.5850171E-1,-4.056196E-1,-1.3003733E-2,2.8142083E-1,1.5556087E-1,7.207716E-2,2.0266809E-1,2.0392585E-1,3.8314638E-1,-5.396941E-1,-2.8199464E-1,2.986771E-1,-9.959181E-1,2.2820888E-1,-3.8071743E-1,-1.4660259E-1,9.245114E-2,-3.1890732E-1,1.4693338E-1,-7.411918E-1,-1.403733E-1,-2.8594357E-1,2.9400215E-1,8.103923E-2,3.3987996E-1,-1.426102E-1,-5.049078E-1,-1.7555272E-2,6.769444E-1,6.990825E-1,1.02817684E-1,5.8236644E-2,3.7014452E-1,3.7905103E-1,2.7803674E-2,1.7369753E-1,2.8705484E-1,3.3362737E-1,4.9149153E-1,-1.2755378E-1,-2.1169062E-1,-7.857783E-2,-1.7099285E-1,1.8286029E-1,-2.436018E-3,-9.750663E-2,-3.8722152E-1,-4.4902112E-2,1.6471177E-1,-1.3049354E-1,-5.813558E-2,-4.3177917E-3,-4.9788807E-2,1.3658376E-1,-6.752079E-2,1.01020075E-1,-1.2875135E-1,4.2033866E-2,-2.4424507E-1,2.2831297E-2,-8.0291465E-2,1.8459664E-1,-1.07612655E-1,-1.3144928E-1,1.10152535E-1,4.251059E-2,-6.45313E-2,1.1270609E-1,-4.2144824E-2,-6.1579924E-2,1.0078805E-1,-2.5579762E-1,-1.1354641E-1,-1.6641381E-1,-3.5418672E-3,1.3974953E-2,2.225426E-1,3.0738804E-1,9.338458E-2,-1.1424035E-2,7.665389E-2,-4.7520595E-3,2.9458603E-2,-3.5786536E-2,1.14770226E-1,1.2860541E-1,6.887257E-2,-4.955975E-3,8.453864E-2,5.4409645E-2,-7.0061214E-2,1.8654735E-1,6.231265E-2,1.360255E-1,8.037235E-2,1.6087878E-1,8.417085E-2],"categories":[],"categories_nodes":[],"categories_segments":[],"categories_sizes":[],"default_left":[0,0,0,0,0,0,0,0,0,0,0,0,0,0,0,0,0,0,0,0,0,0,0,0,0,0,0,0,0,0,0,0,0,0,0,0,0,0,0,0,0,0,0,0,0,0,0,0,0,0,0,0,0,0,0,0,0,0,0,0,0,0,0,0,0,0,0,0,0,0,0,0,0,0,0,0,0,0,0,0,0,0,0,0,0,0,0,0,0,0,0,0,0,0,0,0,0,0,0,0,0,0,0,0,0,0,0,0,0,0,0,0,0,0,0,0,0,0,0],"id":6,"left_children":[1,3,5,7,9,11,13,15,17,19,21,23,25,27,29,31,33,35,37,39,41,43,45,47,49,-1,51,53,55,57,59,61,63,65,67,69,71,73,75,77,-1,79,81,83,85,87,89,91,93,95,97,99,101,103,105,107,109,111,113,115,117,-1,-1,-1,-1,-1,-1,-1,-1,-1,-1,-1,-1,-1,-1,-1,-1,-1,-1,-1,-1,-1,-1,-1,-1,-1,-1,-1,-1,-1,-1,-1,-1,-1,-1,-1,-1,-1,-1,-1,-1,-1,-1,-1,-1,-1,-1,-1,-1,-1,-1,-1,-1,-1,-1,-1,-1,-1,-1],"loss_changes":[6.1191074E1,1.7014454E1,1.9747183E1,8.460648E0,7.3837447E0,7.2470856E0,6.466957E0,2.2093887E0,4.9563637E0,1.8317719E0,4.632021E0,6.882149E0,6.096974E0,5.265642E0,2.4381943E0,2.1176643E0,4.5458536E0,2.322896E0,3.735941E0,1.860179E0,1.2064872E0,6.476309E0,3.5552087E0,1.1292272E0,4.791459E0,0E0,3.2248337E0,4.644281E0,1.312862E1,9.728699E-1,3.51079E-1,4.2208195E-1,1.4342537E0,3.8642988E-1,1.9540062E0,9.308302E-1,1.0517387E0,2.7210217E0,8.166842E0,8.674511E-1,0E0,1.0785513E0,1.8566847E-1,4.2867327E0,1.6609771E0,3.2641587E0,1.3600035E0,4.887569E-1,1.1280451E0,4.665813E0,3.7432337E-1,9.4351435E-1,2.2902594E0,3.20429E0,3.4964466E-1,1.4744186E0,2.4250884E0,9.82275E-1,2.7130432E0,4.2173576E-1,1.1395025E-1,0E0,0E0,0E0,0E0,0E0,0E0,0E0,0E0,0E0,0E0,0E0,0E0,0E0,0E0,0E0,0E0,0E0,0E0,0E0,0E0,0E0,0E0,0E0,0E0,0E0,0E0,0E0,0E0,0E0,0E0,0E0,0E0,0E0,0E0,0E0,0E0,0E0,0E0,0E0,0E0,0E0,0E0,0E0,0E0,0E0,0E0,0E0,0E0,0E0,0E0,0E0,0E0,0E0,0E0,0E0,0E0,0E0,0E0],"parents":[2147483647,0,0,1,1,2,2,3,3,4,4,5,5,6,6,7,7,8,8,9,9,10,10,11,11,12,12,13,13,14,14,15,15,16,16,17,17,18,18,19,19,20,20,21,21,22,22,23,23,24,24,26,26,27,27,28,28,29,29,30,30,31,31,32,32,33,33,34,34,35,35,36,36,37,37,38,38,39,39,41,41,42,42,43,43,44,44,45,45,46,46,47,47,48,48,49,49,50,50,51,51,52,52,53,53,54,54,55,55,56,56,57,57,58,58,59,59,60,60],"right_children":[2,4,6,8,10,12,14,16,18,20,22,24,26,28,30,32,34,36,38,40,42,44,46,48,50,-1,52,54,56,58,60,62,64,66,68,70,72,74,76,78,-1,80,82,84,86,88,90,92,94,96,98,100,102,104,106,108,110,112,114,116,118,-1,-1,-1,-1,-1,-1,-1,-1,-1,-1,-1,-1,-1,-1,-1,-1,-1,-1,-1,-1,-1,-1,-1,-1,-1,-1,-1,-1,-1,-1,-1,-1,-1,-1,-1,-1,-1,-1,-1,-1,-1,-1,-1,-1,-1,-1,-1,-1,-1,-1,-1,-1,-1,-1,-1,-1,-1,-1],"split_conditions":[5.7916665E0,6.090909E0,6.15E0,4.4E0,4.825E0,3.015E3,6.975E0,6.922E3,4.3E0,2.004E3,4.4E1,4.825E0,1.995E3,3.41E2,8E0,3.1E0,2.01E3,1.992E3,7.329E3,5.42E2,5.4E0,2.001E3,6.3E0,4.811111E0,7.6E0,2.8142083E-1,1.1E2,7.7E0,2.009E3,8.64E2,8.7E0,2.49E2,5.752E0,1.1195E4,3.775E0,5.35E0,2.014E3,1.09E2,2.009E3,6.1E0,1.4693338E-1,6.125E0,4.6E0,4.957143E0,4.3E0,6.104E0,5.757143E0,1.54E2,4.2E0,4.4E0,1.99E3,5.590909E0,6.1625E0,6.25E0,5.4891567E0,6.65E0,7.2E0,1.76E2,1.991E3,8E0,1.16E2,-1.2755378E-1,-2.1169062E-1,-7.857783E-2,-1.7099285E-1,1.8286029E-1,-2.436018E-3,-9.750663E-2,-3.8722152E-1,-4.4902112E-2,1.6471177E-1,-1.3049354E-1,-5.813558E-2,-4.3177917E-3,-4.9788807E-2,1.3658376E-1,-6.752079E-2,1.01020075E-1,-1.2875135E-1,4.2033866E-2,-2.4424507E-1,2.2831297E-2,-8.0291465E-2,1.8459664E-1,-1.07612655E-1,-1.3144928E-1,1.10152535E-1,4.251059E-2,-6.45313E-2,1.1270609E-1,-4.2144824E-2,-6.1579924E-2,1.0078805E-1,-2.5579762E-1,-1.1354641E-1,-1.6641381E-1,-3.5418672E-3,1.3974953E-2,2.225426E-1,3.0738804E-1,9.338458E-2,-1.1424035E-2,7.665389E-2,-4.7520595E-3,2.9458603E-2,-3.5786536E-2,1.14770226E-1,1.2860541E-1,6.887257E-2,-4.955975E-3,8.453864E-2,5.4409645E-2,-7.0061214E-2,1.8654735E-1,6.231265E-2,1.360255E-1,8.037235E-2,1.6087878E-1,8.417085E-2],"split_indices":[5,6,3,5,4,2,5,2,6,0,2,4,0,2,5,5,0,0,2,2,5,0,4,6,5,0,1,3,0,2,5,2,6,2,3,4,0,1,0,6,0,6,4,4,5,4,5,1,4,6,0,3,5,4,4,5,6,1,0,3,1,0,0,0,0,0,0,0,0,0,0,0,0,0,0,0,0,0,0,0,0,0,0,0,0,0,0,0,0,0,0,0,0,0,0,0,0,0,0,0,0,0,0,0,0,0,0,0,0,0,0,0,0,0,0,0,0,0,0],"split_type":[0,0,0,0,0,0,0,0,0,0,0,0,0,0,0,0,0,0,0,0,0,0,0,0,0,0,0,0,0,0,0,0,0,0,0,0,0,0,0,0,0,0,0,0,0,0,0,0,0,0,0,0,0,0,0,0,0,0,0,0,0,0,0,0,0,0,0,0,0,0,0,0,0,0,0,0,0,0,0,0,0,0,0,0,0,0,0,0,0,0,0,0,0,0,0,0,0,0,0,0,0,0,0,0,0,0,0,0,0,0,0,0,0,0,0,0,0,0,0],"sum_hessian":[5.692E3,1.946E3,3.746E3,1.573E3,3.73E2,1.69E3,2.056E3,3.24E2,1.249E3,3.1E1,3.42E2,1.566E3,1.24E2,1.555E3,5.01E2,3.1E2,1.4E1,1.17E2,1.132E3,1.2E1,1.9E1,8.8E1,2.54E2,4.5E1,1.521E3,1E1,1.14E2,1.13E3,4.25E2,4.06E2,9.5E1,3.7E1,2.73E2,3E0,1.1E1,6E0,1.11E2,1.063E3,6.9E1,9E0,3E0,1.4E1,5E0,6.1E1,2.7E1,1.79E2,7.5E1,1.3E1,3.2E1,1.512E3,9E0,9E0,1.05E2,1.081E3,4.9E1,2.11E2,2.14E2,3E2,1.06E2,6.8E1,2.7E1,2.4E1,1.3E1,2.57E2,1.6E1,1E0,2E0,4E0,7E0,3E0,3E0,8.5E1,2.6E1,1.36E2,9.27E2,3.2E1,3.7E1,1E0,8E0,1E0,1.3E1,2E0,3E0,4E0,5.7E1,2E0,2.5E1,1.49E2,3E1,7E1,5E0,1.2E1,1E0,7E0,2.5E1,1.5E1,1.497E3,1E0,8E0,4E0,5E0,5.5E1,5E1,3.79E2,7.02E2,1E0,4.8E1,1.57E2,5.4E1,1.83E2,3.1E1,2.95E2,5E0,1.9E1,8.7E1,2.2E1,4.6E1,2.1E1,6E0],"tree_param":{"num_deleted":"0","num_feature":"7","num_nodes":"119","size_leaf_vector":"1"}},{"base_weights":[-3.859685E-4,-1.20515235E-1,4.6603367E-2,-1.5514743E-1,4.8520304E-2,2.0023394E-2,1.7151615E-1,-2.8165704E-1,-1.24408744E-1,2.5305325E-1,-8.896228E-2,2.9244195E-3,1.3938592E-1,4.1096625E-1,1.5603113E-1,-2.5940242E-1,-7.181148E-1,-1.3188682E-1,2.9658213E-1,1.5435323E-1,4.091782E-1,-2.5943783E-1,1.9568197E-1,-1.657215E-1,1.4251692E-2,1.068273E-1,3.5529044E-1,2.1069786E-1,4.9072593E-1,1.3510053E-1,3.1476703E-1,-4.5702592E-1,-2.2258206E-1,-9.063911E-1,-1.14964485E-1,-2.6672053E-1,-1.1108966E-1,6.4059746E-1,1.6213824E-1,5.8232572E-2,5.6393206E-1,7.3548263E-1,2.696675E-1,-3.4022322E-1,3.815366E-1,-3.4279346E-1,2.3872845E-1,-1.765756E-2,-2.9849672E-1,5.4888553E-3,2.1282908E-1,7.8004636E-2,2.6322496E-1,6.4302695E-1,2.6003775E-1,-1.0533587E-1,3.9797613E-1,-3.8748265E-3,5.085383E-1,-1.3894701E-1,1.4189646E-1,4.5842442E-1,2.5014403E-1,-8.8092364E-2,-1.8148676E-1,-1.1576427E-1,-5.279692E-2,-2.788067E-2,-2.9893684E-1,-2.0269633E-3,-4.4634484E-2,-1.3044995E-1,-3.5829157E-2,-1.4642183E-2,-5.22263E-2,2.2440706E-1,3.1633973E-2,-1.6806604E-3,7.397061E-2,9.3900286E-2,-4.966229E-2,2.2174479E-1,9.244593E-2,9.499992E-2,2.519709E-1,-1.9196548E-2,9.64404E-2,-8.336419E-2,-3.5624614E-1,2.3725383E-1,2.3407836E-2,-1.17161006E-1,-2.27731E-2,1.4632103E-1,3.707553E-2,-5.472262E-2,4.8848983E-2,-2.1443526E-1,-7.4510686E-2,-1.7717098E-1,2.3223488E-3,2.8296739E-2,1.2666069E-1,4.201629E-2,2.0946562E-3,1.5716161E-1,3.8848117E-2,2.4658801E-2,2.0487398E-1,1.0993296E-1,6.0514193E-2,-5.355263E-3,-5.6061175E-2,1.2903681E-1,2.1120572E-2,1.9127658E-1,1.1398165E-1,-7.757753E-2,4.561827E-2,8.042079E-2,3.918933E-2,6.242899E-2,1.6648103E-1,5.97617E-2,9.766662E-2],"categories":[],"categories_nodes":[],"categories_segments":[],"categories_sizes":[],"default_left":[0,0,0,0,0,0,0,0,0,0,0,0,0,0,0,0,0,0,0,0,0,0,0,0,0,0,0,0,0,0,0,0,0,0,0,0,0,0,0,0,0,0,0,0,0,0,0,0,0,0,0,0,0,0,0,0,0,0,0,0,0,0,0,0,0,0,0,0,0,0,0,0,0,0,0,0,0,0,0,0,0,0,0,0,0,0,0,0,0,0,0,0,0,0,0,0,0,0,0,0,0,0,0,0,0,0,0,0,0,0,0,0,0,0,0,0,0,0,0,0,0,0,0,0,0],"id":7,"left_children":[1,3,5,7,9,11,13,15,17,19,21,23,25,27,29,31,33,35,37,39,41,43,45,47,49,51,53,55,57,59,61,63,65,67,69,71,73,75,77,79,81,83,85,87,89,91,93,95,97,99,101,103,105,107,109,111,113,-1,115,117,119,121,123,-1,-1,-1,-1,-1,-1,-1,-1,-1,-1,-1,-1,-1,-1,-1,-1,-1,-1,-1,-1,-1,-1,-1,-1,-1,-1,-1,-1,-1,-1,-1,-1,-1,-1,-1,-1,-1,-1,-1,-1,-1,-1,-1,-1,-1,-1,-1,-1,-1,-1,-1,-1,-1,-1,-1,-1,-1,-1,-1,-1,-1,-1],"loss_changes":[3.2141434E1,9.379892E0,1.3586056E1,5.133095E0,7.699196E0,6.8899307E0,2.5981388E0,2.329441E0,3.410841E0,1.6318908E0,8.008848E0,5.645384E0,2.9355469E0,5.834584E-1,2.2034454E0,1.7028656E0,1.2585039E0,2.923149E0,7.74899E-1,2.683621E0,1.7136288E0,5.463289E0,1.5189614E0,3.6513443E0,4.817172E0,1.6428442E0,1.3402109E0,8.7052876E-1,2.757001E-1,1.1352959E0,6.094465E-1,7.408004E-1,1.5374765E0,5.6676865E-1,1.363188E-2,3.414651E0,3.577734E0,2.0856953E-1,2.138173E-1,3.3014085E0,3.5484838E-1,2.5882578E-1,5.5635977E-1,4.529519E0,1.4290498E0,3.406346E-2,1.6026788E0,2.6761634E0,1.8674908E0,3.566243E0,2.863195E0,1.3783878E0,1.9189913E0,2.3466969E-1,1.9294E-1,3.946258E-2,6.449187E-2,0E0,2.3903322E-1,5.615853E-1,7.964897E-1,4.4019318E-1,1.5026212E-1,0E0,0E0,0E0,0E0,0E0,0E0,0E0,0E0,0E0,0E0,0E0,0E0,0E0,0E0,0E0,0E0,0E0,0E0,0E0,0E0,0E0,0E0,0E0,0E0,0E0,0E0,0E0,0E0,0E0,0E0,0E0,0E0,0E0,0E0,0E0,0E0,0E0,0E0,0E0,0E0,0E0,0E0,0E0,0E0,0E0,0E0,0E0,0E0,0E0,0E0,0E0,0E0,0E0,0E0,0E0,0E0,0E0,0E0,0E0,0E0,0E0,0E0],"parents":[2147483647,0,0,1,1,2,2,3,3,4,4,5,5,6,6,7,7,8,8,9,9,10,10,11,11,12,12,13,13,14,14,15,15,16,16,17,17,18,18,19,19,20,20,21,21,22,22,23,23,24,24,25,25,26,26,27,27,28,28,29,29,30,30,31,31,32,32,33,33,34,34,35,35,36,36,37,37,38,38,39,39,40,40,41,41,42,42,43,43,44,44,45,45,46,46,47,47,48,48,49,49,50,50,51,51,52,52,53,53,54,54,55,55,56,56,58,58,59,59,60,60,61,61,62,62],"right_children":[2,4,6,8,10,12,14,16,18,20,22,24,26,28,30,32,34,36,38,40,42,44,46,48,50,52,54,56,58,60,62,64,66,68,70,72,74,76,78,80,82,84,86,88,90,92,94,96,98,100,102,104,106,108,110,112,114,-1,116,118,120,122,124,-1,-1,-1,-1,-1,-1,-1,-1,-1,-1,-1,-1,-1,-1,-1,-1,-1,-1,-1,-1,-1,-1,-1,-1,-1,-1,-1,-1,-1,-1,-1,-1,-1,-1,-1,-1,-1,-1,-1,-1,-1,-1,-1,-1,-1,-1,-1,-1,-1,-1,-1,-1,-1,-1,-1,-1,-1,-1,-1,-1,-1,-1],"split_conditions":[5.5333333E0,1.72E3,6.8142858E0,4.3E0,2.008E3,6.7357144E0,5.7916665E0,6.16875E0,6.896154E0,4.464E3,5.7916665E0,5.0142856E0,7.5E0,5.95E0,8.1E0,3.1E0,7.61E2,1.6E1,5.590909E0,6.3E0,5.1125E0,6.142857E0,4.9E0,1.22E2,1.73E2,4.464E3,6.663158E0,6.95E0,1.98E3,6E0,7.4545455E0,3E0,2.003E3,1.936E3,8.64E2,1.998E3,1.26E2,2.017E3,6.16E0,5.2875E0,6.663158E0,5.1307693E0,5.2E0,1.58E2,2.012E3,1.55E2,5.675E0,3.5E1,1.58E2,4.0666666E0,1.952E3,1.989E3,2.007E3,5.366667E0,7.2E0,2.006E3,1.51E2,-3.8748265E-3,6.6E0,6.6625E0,5.869565E0,2.01E3,8.7E0,-8.8092364E-2,-1.8148676E-1,-1.1576427E-1,-5.279692E-2,-2.788067E-2,-2.9893684E-1,-2.0269633E-3,-4.4634484E-2,-1.3044995E-1,-3.5829157E-2,-1.4642183E-2,-5.22263E-2,2.2440706E-1,3.1633973E-2,-1.6806604E-3,7.397061E-2,9.3900286E-2,-4.966229E-2,2.2174479E-1,9.244593E-2,9.499992E-2,2.519709E-1,-1.9196548E-2,9.64404E-2,-8.336419E-2,-3.5624614E-1,2.3725383E-1,2.3407836E-2,-1.17161006E-1,-2.27731E-2,1.4632103E-1,3.707553E-2,-5.472262E-2,4.8848983E-2,-2.1443526E-1,-7.4510686E-2,-1.7717098E-1,2.3223488E-3,2.8296739E-2,1.2666069E-1,4.201629E-2,2.0946562E-3,1.5716161E-1,3.8848117E-2,2.4658801E-2,2.0487398E-1,1.0993296E-1,6.0514193E-2,-5.355263E-3,-5.6061175E-2,1.2903681E-1,2.1120572E-2,1.9127658E-1,1.1398165E-1,-7.757753E-2,4.561827E-2,8.042079E-2,3.918933E-2,6.242899E-2,1.6648103E-1,5.97617E-2,9.766662E-2],"split_indices":[4,2,6,4,0,4,3,3,5,2,5,3,4,5,6,4,2,2,3,3,5,6,6,2,1,2,3,6,0,3,4,6,0,0,2,0,2,0,6,5,3,6,5,1,0,1,6,2,2,5,2,0,0,6,3,0,1,0,5,5,5,0,6,0,0,0,0,0,0,0,0,0,0,0,0,0,0,0,0,0,0,0,0,0,0,0,0,0,0,0,0,0,0,0,0,0,0,0,0,0,0,0,0,0,0,0,0,0,0,0,0,0,0,0,0,0,0,0,0,0,0,0,0,0,0],"split_type":[0,0,0,0,0,0,0,0,0,0,0,0,0,0,0,0,0,0,0,0,0,0,0,0,0,0,0,0,0,0,0,0,0,0,0,0,0,0,0,0,0,0,0,0,0,0,0,0,0,0,0,0,0,0,0,0,0,0,0,0,0,0,0,0,0,0,0,0,0,0,0,0,0,0,0,0,0,0,0,0,0,0,0,0,0,0,0,0,0,0,0,0,0,0,0,0,0,0,0,0,0,0,0,0,0,0,0,0,0,0,0,0,0,0,0,0,0,0,0,0,0,0,0,0,0],"sum_hessian":[5.692E3,1.6E3,4.092E3,1.328E3,2.72E2,3.375E3,7.17E2,2.58E2,1.07E3,1.09E2,1.63E2,2.953E3,4.22E2,4.2E1,6.75E2,2.47E2,1.1E1,1.052E3,1.8E1,6.8E1,4.1E1,1.02E2,6.1E1,1.85E2,2.768E3,3.68E2,5.4E1,1.3E1,2.9E1,5.98E2,7.7E1,3.7E1,2.1E2,8E0,3E0,1.39E2,9.13E2,4E0,1.4E1,5.6E1,1.2E1,1.1E1,3E1,9.1E1,1.1E1,4E0,5.7E1,8.8E1,9.7E1,2.652E3,1.16E2,3.12E2,5.6E1,1.2E1,4.2E1,5E0,8E0,1E0,2.8E1,1.4E1,5.84E2,2.2E1,5.5E1,1.9E1,1.8E1,4.5E1,1.65E2,1E0,7E0,1E0,2E0,6.4E1,7.5E1,4.6E2,4.53E2,3E0,1E0,5E0,9E0,2.6E1,3E1,6E0,6E0,3E0,8E0,4E0,2.6E1,8.6E1,5E0,4E0,7E0,3E0,1E0,1.7E1,4E1,4.6E1,4.2E1,9E0,8.8E1,9E0,2.643E3,7.5E1,4.1E1,1.66E2,1.46E2,1.8E1,3.8E1,1E0,1.1E1,1.3E1,2.9E1,3E0,2E0,7E0,1E0,1.2E1,1.6E1,1E1,4E0,4.6E1,5.38E2,7E0,1.5E1,3.5E1,2E1],"tree_param":{"num_deleted":"0","num_feature":"7","num_nodes":"125","size_leaf_vector":"1"}},{"base_weights":[-7.3370145E-5,-7.1153924E-2,4.6125922E-2,-7.819771E-2,3.2891506E-1,2.1381533E-2,1.2756501E-1,-2.4157013E-1,-6.364428E-2,6.7833066E-1,2.1686168E-1,7.4465796E-3,1.4772151E-1,3.094661E-1,6.0641065E-2,-4.3729424E-1,-2.1437153E-1,-1.7684898E-1,-4.8188914E-2,3.607035E-3,7.601161E-1,3.2715178E-1,1.0679032E-1,-2.9849097E-1,1.2657511E-2,-1.3917017E-1,1.572678E-1,5.164944E-1,2.4399675E-1,1.03561126E-1,-3.0742995E-2,-2.0494911E-1,-5.16569E-1,-1.8483149E-1,-3.9126673E-1,-2.590647E-1,-6.0961307E-3,6.3078046E-2,-6.956279E-2,2.6888896E-2,2.529287E-1,-1.506672E-2,3.890726E-1,-8.4466934E-2,1.9351976E-1,-2.5443736E-1,-2.310038E-1,1.019969E-2,4.2150715E-1,1.1580356E-1,-1.4605147E-1,1.436177E-1,2.7710393E-1,6.546543E-1,2.0166546E-1,1.7175707E-1,3.687576E-1,-2.550205E-1,1.2404859E-1,-1.3511299E-1,1.3695607E-1,-2.4278177E-2,-8.332011E-2,-8.787496E-2,-1.7138053E-1,-4.7509328E-2,-1.0963683E-1,-1.3282686E-1,2.472558E-2,-1.2522218E-2,-9.0477094E-2,-4.550147E-2,2.8234197E-2,1.2362988E-2,2.2092298E-1,-2.504331E-2,2.9515192E-2,1.2852421E-1,3.453894E-2,-1.2046638E-1,1.7778454E-2,-1.5393949E-2,6.6132635E-2,-1.8224537E-1,-2.6488883E-2,-4.9106765E-4,2.4701841E-2,1.8530989E-2,1.3332832E-1,-8.395887E-3,4.504764E-2,1.342103E-1,4.1703396E-2,1.4537549E-1,6.0301326E-2,-9.19776E-3,2.0271371E-1,-7.854777E-2,1.2498171E-1,5.833189E-2,-7.274175E-2,1.4375407E-1,1.8379886E-2,-1.7189254E-1,-3.8340017E-2,7.638177E-2,2.781062E-2,9.69423E-2,-5.5714842E-2,2.7741916E-2,1.0661159E-1],"categories":[],"categories_nodes":[],"categories_segments":[],"categories_sizes":[],"default_left":[0,0,0,0,0,0,0,0,0,0,0,0,0,0,0,0,0,0,0,0,0,0,0,0,0,0,0,0,0,0,0,0,0,0,0,0,0,0,0,0,0,0,0,0,0,0,0,0,0,0,0,0,0,0,0,0,0,0,0,0,0,0,0,0,0,0,0,0,0,0,0,0,0,0,0,0,0,0,0,0,0,0,0,0,0,0,0,0,0,0,0,0,0,0,0,0,0,0,0,0,0,0,0,0,0,0,0,0,0,0,0],"id":8,"left_children":[1,3,5,7,9,11,13,15,17,19,21,23,25,27,29,31,33,35,37,-1,39,41,43,45,47,49,51,53,55,57,59,61,63,65,67,69,71,73,75,-1,-1,-1,77,79,81,-1,83,85,87,89,-1,91,93,95,97,99,101,103,105,107,109,-1,-1,-1,-1,-1,-1,-1,-1,-1,-1,-1,-1,-1,-1,-1,-1,-1,-1,-1,-1,-1,-1,-1,-1,-1,-1,-1,-1,-1,-1,-1,-1,-1,-1,-1,-1,-1,-1,-1,-1,-1,-1,-1,-1,-1,-1,-1,-1,-1,-1],"loss_changes":[1.8698362E1,6.346491E0,6.95159E0,5.227296E0,1.3798709E0,4.660814E0,9.768759E0,8.6447334E-1,3.5362082E0,4.8130894E-1,3.4139657E-1,3.8075862E0,7.421789E-1,2.8016434E0,2.3133652E0,2.80931E-1,7.6376057E-1,3.4097924E0,4.2471085E0,0E0,3.6952734E-1,3.7004995E-1,2.983358E-1,1.2878077E0,2.3541515E0,8.541935E-1,3.7732506E-1,2.0863132E0,1.4327679E0,2.9775524E0,3.3265238E0,4.071191E-2,1.6170979E-2,6.066289E-1,5.730672E-1,1.5030718E0,1.1813247E0,4.2103033E0,3.5066466E0,0E0,0E0,0E0,9.078169E-2,2.9724386E-1,9.040937E-2,0E0,1.9342471E0,1.9931103E0,8.798313E-2,3.3841982E-2,0E0,2.6102495E-1,2.9732633E-1,5.258131E-1,1.8026677E0,1.0524948E0,2.007882E0,8.1668115E-1,1.5315542E0,2.7731369E0,6.7639077E-1,0E0,0E0,0E0,0E0,0E0,0E0,0E0,0E0,0E0,0E0,0E0,0E0,0E0,0E0,0E0,0E0,0E0,0E0,0E0,0E0,0E0,0E0,0E0,0E0,0E0,0E0,0E0,0E0,0E0,0E0,0E0,0E0,0E0,0E0,0E0,0E0,0E0,0E0,0E0,0E0,0E0,0E0,0E0,0E0,0E0,0E0,0E0,0E0,0E0,0E0],"parents":[2147483647,0,0,1,1,2,2,3,3,4,4,5,5,6,6,7,7,8,8,9,9,10,10,11,11,12,12,13,13,14,14,15,15,16,16,17,17,18,18,20,20,21,21,22,22,23,23,24,24,25,25,26,26,27,27,28,28,29,29,30,30,31,31,32,32,33,33,34,34,35,35,36,36,37,37,38,38,42,42,43,43,44,44,46,46,47,47,48,48,49,49,51,51,52,52,53,53,54,54,55,55,56,56,57,57,58,58,59,59,60,60],"right_children":[2,4,6,8,10,12,14,16,18,20,22,24,26,28,30,32,34,36,38,-1,40,42,44,46,48,50,52,54,56,58,60,62,64,66,68,70,72,74,76,-1,-1,-1,78,80,82,-1,84,86,88,90,-1,92,94,96,98,100,102,104,106,108,110,-1,-1,-1,-1,-1,-1,-1,-1,-1,-1,-1,-1,-1,-1,-1,-1,-1,-1,-1,-1,-1,-1,-1,-1,-1,-1,-1,-1,-1,-1,-1,-1,-1,-1,-1,-1,-1,-1,-1,-1,-1,-1,-1,-1,-1,-1,-1,-1,-1,-1],"split_conditions":[5.904E0,7.0555553E0,3.55E2,3.9E0,6.04E0,7.1E0,1.995E3,2.7E0,1.6E1,1.968E3,6.746154E0,4.825E0,6.125E0,6.1875E0,1.41E2,2.6E1,5.46E0,2.008E3,1.99E3,3.607035E-3,5.0333333E0,1.974E3,7.3E0,7.5E1,8.2E0,9.5E1,8.7E0,1.991E3,1.102E3,4.825E0,1.0075E4,2.7E0,1.06E2,5.4428573E0,5.8E0,4.5E0,5.2941175E0,1.145E3,9.06E3,2.6888896E-2,2.529287E-1,-1.506672E-2,1.41E2,6.32E0,6.9333334E0,-2.5443736E-1,1.995E3,6.78E0,1.991E3,1.954E3,-1.4605147E-1,5.3846154E0,8.2E0,1.03E2,7.96E2,9.96E2,1.75E2,5.42E2,5.757143E0,4.9E0,5.9545E4,-2.4278177E-2,-8.332011E-2,-8.787496E-2,-1.7138053E-1,-4.7509328E-2,-1.0963683E-1,-1.3282686E-1,2.472558E-2,-1.2522218E-2,-9.0477094E-2,-4.550147E-2,2.8234197E-2,1.2362988E-2,2.2092298E-1,-2.504331E-2,2.9515192E-2,1.2852421E-1,3.453894E-2,-1.2046638E-1,1.7778454E-2,-1.5393949E-2,6.6132635E-2,-1.8224537E-1,-2.6488883E-2,-4.9106765E-4,2.4701841E-2,1.8530989E-2,1.3332832E-1,-8.395887E-3,4.504764E-2,1.342103E-1,4.1703396E-2,1.4537549E-1,6.0301326E-2,-9.19776E-3,2.0271371E-1,-7.854777E-2,1.2498171E-1,5.833189E-2,-7.274175E-2,1.4375407E-1,1.8379886E-2,-1.7189254E-1,-3.8340017E-2,7.638177E-2,2.781062E-2,9.69423E-2,-5.5714842E-2,2.7741916E-2,1.0661159E-1],"split_indices":[6,5,2,6,3,4,0,6,2,0,3,4,6,3,1,2,5,0,0,0,6,0,5,1,3,2,4,0,2,4,2,5,1,4,4,6,5,2,2,0,0,0,1,4,3,0,0,6,0,0,0,3,3,1,2,2,1,2,3,3,2,0,0,0,0,0,0,0,0,0,0,0,0,0,0,0,0,0,0,0,0,0,0,0,0,0,0,0,0,0,0,0,0,0,0,0,0,0,0,0,0,0,0,0,0,0,0,0,0,0,0],"split_type":[0,0,0,0,0,0,0,0,0,0,0,0,0,0,0,0,0,0,0,0,0,0,0,0,0,0,0,0,0,0,0,0,0,0,0,0,0,0,0,0,0,0,0,0,0,0,0,0,0,0,0,0,0,0,0,0,0,0,0,0,0,0,0,0,0,0,0,0,0,0,0,0,0,0,0,0,0,0,0,0,0,0,0,0,0,0,0,0,0,0,0,0,0,0,0,0,0,0,0,0,0,0,0,0,0,0,0,0,0,0,0],"sum_hessian":[5.692E3,2.242E3,3.45E3,2.204E3,3.8E1,2.647E3,8.03E2,1.79E2,2.025E3,8E0,3E1,2.385E3,2.62E2,2.15E2,5.88E2,2E1,1.59E2,2.42E2,1.783E3,1E0,7E0,1.4E1,1.6E1,3.9E1,2.346E3,8E0,2.54E2,5E1,1.65E2,4E2,1.88E2,6E0,1.4E1,1.38E2,2.1E1,1.63E2,7.9E1,2.87E2,1.496E3,1E0,6E0,2E0,1.2E1,5E0,1.1E1,3E0,3.6E1,2.333E3,1.3E1,5E0,3E0,2.3E2,2.4E1,3.4E1,1.6E1,1.06E2,5.9E1,2.1E1,3.79E2,1.16E2,7.2E1,3E0,3E0,4E0,1E1,1.22E2,1.6E1,1.9E1,2E0,2.7E1,1.36E2,3.2E1,4.7E1,2.79E2,8E0,1.382E3,1.14E2,1E1,2E0,1E0,4E0,1E0,1E1,9E0,2.7E1,2.005E3,3.28E2,1E0,1.2E1,1E0,4E0,2E0,2.28E2,5E0,1.9E1,1E0,3.3E1,5E0,1.1E1,1.01E2,5E0,4.3E1,1.6E1,5E0,1.6E1,7.2E1,3.07E2,1.1E1,1.05E2,6.1E1,1.1E1],"tree_param":{"num_deleted":"0","num_feature":"7","num_nodes":"111","size_leaf_vector":"1"}},{"base_weights":[2.6512498E-6,-4.7441237E-2,3.826482E-2,-7.460178E-2,2.0600298E-2,2.3248317E-2,9.302526E-2,-4.577683E-2,-1.2910351E-1,3.1245255E-1,-4.7814324E-2,-2.2076032E-1,2.7347334E-2,2.614714E-1,8.4001705E-2,-7.423684E-2,2.261317E-1,1.4987408E-1,-1.7424385E-1,3.7711704E-1,4.4945087E-2,-9.6809715E-2,6.495059E-2,1.8812917E-1,-3.5872883E-1,2.6152272E-2,6.029175E-1,5.284395E-1,1.726856E-1,6.873292E-2,1.6751713E-1,-1.3079764E-1,-1.8876283E-3,5.363783E-1,1.4523277E-1,2.2569577E-1,-4.0139553E-1,-2.4241231E-1,-8.9648746E-2,4.580871E-1,1.0824403E-1,-2.2765575E-1,2.0903754E-1,-7.813045E-2,-1.0280116E0,1.0756504E-2,3.568274E-1,4.1923583E-2,1.3005242E-1,-2.2279915E-1,-6.662459E-1,2.154538E-2,1.4437844E-1,2.5924638E-1,4.2212393E-2,4.9264148E-2,6.2247914E-1,2.9978082E-1,-3.9433002E-2,1.1941874E-2,9.474923E-2,4.3081057E-1,1.3963628E-1,-5.7082314E-2,-4.145197E-3,-6.7491517E-3,5.7107944E-2,1.6165257E-3,2.0507284E-1,8.056077E-2,7.225949E-3,-1.8934189E-1,7.696456E-2,-2.0391421E-1,2.0558825E-2,-6.2186595E-2,-2.0925362E-1,1.3112555E-1,-3.5671107E-2,3.2506507E-2,1.63178E-1,9.969508E-2,-1.29334815E-2,9.027133E-2,-1.1356422E-1,-7.198191E-3,7.717304E-2,-2.0250827E-2,-1.4703338E-1,-4.1767532E-1,1.2941409E-2,1.0624725E-1,-1.6919414E-2,1.6297215E-1,2.9984294E-2,3.2239765E-2,-6.2530875E-2,-9.85027E-2,6.68474E-2,7.981396E-3,-2.2685334E-1,5.8684847E-3,8.294238E-2,5.029635E-2,-1.2113693E-1,2.2586483E-1,7.233439E-2,3.0216524E-2,1.7092864E-1,-1.4857808E-1,3.5067257E-2,-5.4023374E-2,9.3934005E-3,2.0102927E-2,4.1195363E-2,1.8421416E-1,7.1055315E-2,6.1962955E-2,3.377607E-2],"categories":[],"categories_nodes":[],"categories_segments":[],"categories_sizes":[],"default_left":[0,0,0,0,0,0,0,0,0,0,0,0,0,0,0,0,0,0,0,0,0,0,0,0,0,0,0,0,0,0,0,0,0,0,0,0,0,0,0,0,0,0,0,0,0,0,0,0,0,0,0,0,0,0,0,0,0,0,0,0,0,0,0,0,0,0,0,0,0,0,0,0,0,0,0,0,0,0,0,0,0,0,0,0,0,0,0,0,0,0,0,0,0,0,0,0,0,0,0,0,0,0,0,0,0,0,0,0,0,0,0,0,0,0,0,0,0,0,0],"id":9,"left_children":[1,3,5,7,9,11,13,15,17,19,21,23,25,27,29,31,33,35,37,39,41,43,45,47,49,51,53,55,57,59,61,63,65,67,69,71,73,75,77,79,81,83,85,87,89,91,93,95,-1,97,99,101,103,-1,-1,-1,105,107,109,111,113,115,117,-1,-1,-1,-1,-1,-1,-1,-1,-1,-1,-1,-1,-1,-1,-1,-1,-1,-1,-1,-1,-1,-1,-1,-1,-1,-1,-1,-1,-1,-1,-1,-1,-1,-1,-1,-1,-1,-1,-1,-1,-1,-1,-1,-1,-1,-1,-1,-1,-1,-1,-1,-1,-1,-1,-1,-1],"loss_changes":[1.0336352E1,4.699267E0,2.5897593E0,2.8486147E0,1.4510955E1,2.4815211E0,1.0085845E0,9.225625E0,7.9346094E0,2.3702059E0,3.2604897E0,2.380456E0,1.6591289E0,7.146473E-1,8.10977E-1,4.4110684E0,2.758244E0,3.768834E0,3.0980625E0,2.3669567E0,1.3000774E0,7.068684E0,2.827583E0,3.764591E-1,1.147382E0,1.3209461E0,4.821378E-1,1.7179346E-1,7.3972136E-1,8.070574E-1,6.665871E-1,4.206723E0,1.882333E0,1.7940106E0,1.3528639E0,2.2239063E0,1.4852569E0,4.634861E0,3.7964969E0,2.492836E0,9.3002343E-1,9.9121505E-1,2.0837516E-1,1.7357922E0,3.1812992E0,3.5252364E0,1.2865052E0,1.5367307E-1,0E0,1.154911E0,5.809021E-1,1.1784818E0,1.2287847E0,0E0,0E0,0E0,1.16856575E-1,8.562304E-1,8.417148E-1,6.490807E-1,4.3361044E-1,1.7442656E-1,1.4143693E-1,0E0,0E0,0E0,0E0,0E0,0E0,0E0,0E0,0E0,0E0,0E0,0E0,0E0,0E0,0E0,0E0,0E0,0E0,0E0,0E0,0E0,0E0,0E0,0E0,0E0,0E0,0E0,0E0,0E0,0E0,0E0,0E0,0E0,0E0,0E0,0E0,0E0,0E0,0E0,0E0,0E0,0E0,0E0,0E0,0E0,0E0,0E0,0E0,0E0,0E0,0E0,0E0,0E0,0E0,0E0,0E0],"parents":[2147483647,0,0,1,1,2,2,3,3,4,4,5,5,6,6,7,7,8,8,9,9,10,10,11,11,12,12,13,13,14,14,15,15,16,16,17,17,18,18,19,19,20,20,21,21,22,22,23,23,24,24,25,25,26,26,27,27,28,28,29,29,30,30,31,31,32,32,33,33,34,34,35,35,36,36,37,37,38,38,39,39,40,40,41,41,42,42,43,43,44,44,45,45,46,46,47,47,49,49,50,50,51,51,52,52,56,56,57,57,58,58,59,59,60,60,61,61,62,62],"right_children":[2,4,6,8,10,12,14,16,18,20,22,24,26,28,30,32,34,36,38,40,42,44,46,48,50,52,54,56,58,60,62,64,66,68,70,72,74,76,78,80,82,84,86,88,90,92,94,96,-1,98,100,102,104,-1,-1,-1,106,108,110,112,114,116,118,-1,-1,-1,-1,-1,-1,-1,-1,-1,-1,-1,-1,-1,-1,-1,-1,-1,-1,-1,-1,-1,-1,-1,-1,-1,-1,-1,-1,-1,-1,-1,-1,-1,-1,-1,-1,-1,-1,-1,-1,-1,-1,-1,-1,-1,-1,-1,-1,-1,-1,-1,-1,-1,-1,-1,-1],"split_conditions":[6.1E0,7.96E2,6.9E0,1.22E2,2E3,4.8E0,5.542857E0,1.19E2,1.991E3,6.542857E0,6.2285714E0,6.1066666E0,8.3E0,1.993E3,8E0,2.001E3,5.5666666E0,1.69E2,5.3365593E0,1.75E2,6.65E0,3.1937E4,2.1982E4,1.33E2,6.4333334E0,7.4E0,2.253E3,5.24E0,1.26E2,1.14E2,6.625E0,3.9E1,6.1E0,5E0,5.5157895E0,4.811111E0,5.633333E0,5.3228574E0,5.385714E0,4.9666667E0,5.66E0,1.993E3,8.95E2,1.78E2,5.4E0,2.005E3,6.5773587E0,1.22E2,1.3005242E-1,6.37931E0,3.65E0,7.4545455E0,2.021E3,2.5924638E-1,4.2212393E-2,4.9264148E-2,6.16875E0,1.102E3,6.9333334E0,6.125E0,3.28E2,6.4E0,7.8E0,-5.7082314E-2,-4.145197E-3,-6.7491517E-3,5.7107944E-2,1.6165257E-3,2.0507284E-1,8.056077E-2,7.225949E-3,-1.8934189E-1,7.696456E-2,-2.0391421E-1,2.0558825E-2,-6.2186595E-2,-2.0925362E-1,1.3112555E-1,-3.5671107E-2,3.2506507E-2,1.63178E-1,9.969508E-2,-1.29334815E-2,9.027133E-2,-1.1356422E-1,-7.198191E-3,7.717304E-2,-2.0250827E-2,-1.4703338E-1,-4.1767532E-1,1.2941409E-2,1.0624725E-1,-1.6919414E-2,1.6297215E-1,2.9984294E-2,3.2239765E-2,-6.2530875E-2,-9.85027E-2,6.68474E-2,7.981396E-3,-2.2685334E-1,5.8684847E-3,8.294238E-2,5.029635E-2,-1.2113693E-1,2.2586483E-1,7.233439E-2,3.0216524E-2,1.7092864E-1,-1.4857808E-1,3.5067257E-2,-5.4023374E-2,9.3934005E-3,2.0102927E-2,4.1195363E-2,1.8421416E-1,7.1055315E-2,6.1962955E-2,3.377607E-2],"split_indices":[5,2,5,2,0,3,6,2,0,4,3,5,6,0,5,0,3,1,4,1,4,2,2,1,5,3,2,6,1,1,3,2,4,3,5,6,6,4,4,3,6,0,2,1,5,0,4,2,0,5,6,4,0,0,0,0,3,2,5,6,2,6,6,0,0,0,0,0,0,0,0,0,0,0,0,0,0,0,0,0,0,0,0,0,0,0,0,0,0,0,0,0,0,0,0,0,0,0,0,0,0,0,0,0,0,0,0,0,0,0,0,0,0,0,0,0,0,0,0],"split_type":[0,0,0,0,0,0,0,0,0,0,0,0,0,0,0,0,0,0,0,0,0,0,0,0,0,0,0,0,0,0,0,0,0,0,0,0,0,0,0,0,0,0,0,0,0,0,0,0,0,0,0,0,0,0,0,0,0,0,0,0,0,0,0,0,0,0,0,0,0,0,0,0,0,0,0,0,0,0,0,0,0,0,0,0,0,0,0,0,0,0,0,0,0,0,0,0,0,0,0,0,0,0,0,0,0,0,0,0,0,0,0,0,0,0,0,0,0,0,0],"sum_hessian":[5.692E3,2.541E3,3.151E3,1.816E3,7.25E2,2.474E3,6.77E2,1.189E3,6.27E2,1.37E2,5.88E2,4E1,2.434E3,3.3E1,6.44E2,1.077E3,1.12E2,8.7E1,5.4E2,1.1E2,2.7E1,4.1E2,1.78E2,1E1,3E1,2.43E3,4E0,7E0,2.6E1,5.46E2,9.8E1,6.04E2,4.73E2,2.2E1,9E1,7.7E1,1E1,2.98E2,2.42E2,8.4E1,2.6E1,1E1,1.7E1,4.03E2,7E0,1.51E2,2.7E1,7E0,3E0,2.2E1,8E0,2.34E3,9E1,2E0,2E0,2E0,5E0,1.6E1,1E1,1.72E2,3.74E2,8E0,9E1,4E2,2.04E2,4.28E2,4.5E1,5E0,1.7E1,4.4E1,4.6E1,2E0,7.5E1,6E0,4E0,2.78E2,2E1,1.2E1,2.3E2,1.7E1,6.7E1,1E1,1.6E1,2E0,8E0,3E0,1.4E1,3.94E2,9E0,5E0,2E0,2.4E1,1.27E2,1.5E1,1.2E1,6E0,1E0,1.8E1,4E0,1E0,7E0,2.323E3,1.7E1,8.7E1,3E0,3E0,2E0,1E1,6E0,2E0,8E0,1.5E1,1.57E2,2.28E2,1.46E2,3E0,5E0,2.4E1,6.6E1],"tree_param":{"num_deleted":"0","num_feature":"7","num_nodes":"119","size_leaf_vector":"1"}},{"base_weights":[1.4638861E-4,-2.6145125E-2,3.6676418E-2,-2.406059E-2,-5.972134E-1,-2.6191095E-1,4.059462E-2,-1.5213715E-1,-1.7913409E-2,-1.0441883E0,-1.2877594E-1,1.20652586E-1,-3.7851915E-1,3.5102878E-2,1.7990021E-1,-2.1757077E-1,-9.877022E-2,-8.437346E-2,-6.4302026E-3,-3.4130493E-1,-8.6507075E-2,-1.0454772E-1,1.23134494E-1,2.4995351E-1,-7.113671E-2,-5.095687E-1,1.2539591E-2,-7.42731E-3,5.18578E-2,-2.0243518E-1,2.0730425E-1,-1.9308552E-1,-2.0266823E-1,-4.9665976E-1,-6.769388E-2,-1.7167501E-1,1.4928637E-2,-2.325336E-3,-1.924538E-1,7.884026E-3,7.0332885E-2,3.0269792E-2,9.4706975E-2,-3.4051705E-2,8.395529E-3,-1.1074889E-1,-7.5329506E-1,-1.4902516E-1,8.3290294E-2,-3.1585094E-2,1.3892835E-1,2.5072458E-1,4.8593804E-2,4.19184E-1,1.2461022E-1,-2.7915174E-2,-7.2630666E-2,-1.6488516E-1,-3.4780886E-2,-2.4909677E-2,7.334798E-2,-6.091012E-2,2.4253855E-2,-1.9337941E-2,2.2352796E-2,-3.2529294E-2,1.213608E-3,-7.104498E-2,9.7546525E-2,6.368995E-3,-2.8211833E-3,1.5661282E-2,-8.602594E-2,-5.74529E-2,-2.5705725E-1,1.9554617E-2,-9.406719E-2,1.3591769E-3,-4.4223122E-2,2.7778776E-2,1.6523397E-1,2.8819996E-1,4.5460492E-2,2.2111492E-2,5.9028035E-3,1.5109281E-1,-7.46212E-4,-5.886114E-2,4.4780366E-2],"categories":[],"categories_nodes":[],"categories_segments":[],"categories_sizes":[],"default_left":[0,0,0,0,0,0,0,0,0,0,0,0,0,0,0,0,0,0,0,0,0,0,0,0,0,0,0,0,0,0,0,0,0,0,0,0,0,0,0,0,0,0,0,0,0,0,0,0,0,0,0,0,0,0,0,0,0,0,0,0,0,0,0,0,0,0,0,0,0,0,0,0,0,0,0,0,0,0,0,0,0,0,0,0,0,0,0,0,0],"id":10,"left_children":[1,3,5,7,9,11,13,15,17,19,21,23,25,27,29,31,33,35,37,-1,-1,-1,39,41,43,45,47,49,51,-1,53,55,-1,57,59,61,63,65,67,69,-1,-1,-1,-1,-1,71,73,75,-1,77,79,81,83,85,87,-1,-1,-1,-1,-1,-1,-1,-1,-1,-1,-1,-1,-1,-1,-1,-1,-1,-1,-1,-1,-1,-1,-1,-1,-1,-1,-1,-1,-1,-1,-1,-1,-1,-1],"loss_changes":[5.468685E0,3.927083E0,2.7985656E0,2.5953972E0,2.3780904E0,1.428581E0,1.7938011E0,5.058012E-1,2.4034572E0,9.5939636E-2,4.303535E-1,2.1616913E-1,1.2363431E0,1.6144016E0,2.224426E0,6.2089705E-1,1.0174E0,4.0250845E0,2.0513513E0,0E0,0E0,0E0,4.946505E-2,1.713854E-2,1.9975225E-2,1.6662264E0,3.4118423E-1,2.2707257E0,1.0426044E0,0E0,1.4721091E0,2.9619193E-1,0E0,5.7252288E-2,4.033762E-1,1.972343E0,1.0359464E0,1.7782311E0,1.4088314E0,8.91819E-4,0E0,0E0,0E0,0E0,0E0,2.4441329E-1,4.758811E-1,1.9665818E-1,0E0,2.3055615E0,1.6854699E0,1.6853155E0,1.1604056E0,8.559842E-1,5.3556055E-1,0E0,0E0,0E0,0E0,0E0,0E0,0E0,0E0,0E0,0E0,0E0,0E0,0E0,0E0,0E0,0E0,0E0,0E0,0E0,0E0,0E0,0E0,0E0,0E0,0E0,0E0,0E0,0E0,0E0,0E0,0E0,0E0,0E0,0E0],"parents":[2147483647,0,0,1,1,2,2,3,3,4,4,5,5,6,6,7,7,8,8,9,9,10,10,11,11,12,12,13,13,14,14,15,15,16,16,17,17,18,18,22,22,23,23,24,24,25,25,26,26,27,27,28,28,30,30,31,31,33,33,34,34,35,35,36,36,37,37,38,38,39,39,45,45,46,46,47,47,49,49,50,50,51,51,52,52,53,53,54,54],"right_children":[2,4,6,8,10,12,14,16,18,20,22,24,26,28,30,32,34,36,38,-1,-1,-1,40,42,44,46,48,50,52,-1,54,56,-1,58,60,62,64,66,68,70,-1,-1,-1,-1,-1,72,74,76,-1,78,80,82,84,86,88,-1,-1,-1,-1,-1,-1,-1,-1,-1,-1,-1,-1,-1,-1,-1,-1,-1,-1,-1,-1,-1,-1,-1,-1,-1,-1,-1,-1,-1,-1,-1,-1,-1,-1],"split_conditions":[6.15E0,3.1937E4,4.65E0,3.8E0,5.4E0,7.1E1,2.1982E4,3.3E0,2.2E1,2.021E3,1.59E2,6.55E0,6.588889E0,6.2E0,5.1307693E0,5.8230767E0,3.2E0,1.998E3,1.79E2,-3.4130493E-1,-8.6507075E-2,-1.0454772E-1,1.71E2,5.088889E0,2.01E3,5E0,5.990909E0,6.78E0,6.16875E0,-2.0243518E-1,6.588889E0,3.2E0,-2.0266823E-1,1.43E2,1.61E2,6.5E0,1.1E1,4.3E0,4.464E3,2.008E3,7.0332885E-2,3.0269792E-2,9.4706975E-2,-3.4051705E-2,8.395529E-3,1.44E2,3.9E0,1.998E3,8.3290294E-2,2.012E3,2.02E3,7E0,1.04E2,7.1E0,6.6277776E0,-2.7915174E-2,-7.2630666E-2,-1.6488516E-1,-3.4780886E-2,-2.4909677E-2,7.334798E-2,-6.091012E-2,2.4253855E-2,-1.9337941E-2,2.2352796E-2,-3.2529294E-2,1.213608E-3,-7.104498E-2,9.7546525E-2,6.368995E-3,-2.8211833E-3,1.5661282E-2,-8.602594E-2,-5.74529E-2,-2.5705725E-1,1.9554617E-2,-9.406719E-2,1.3591769E-3,-4.4223122E-2,2.7778776E-2,1.6523397E-1,2.8819996E-1,4.5460492E-2,2.2111492E-2,5.9028035E-3,1.5109281E-1,-7.46212E-4,-5.886114E-2,4.4780366E-2],"split_indices":[3,2,6,6,5,2,2,6,2,0,1,3,3,5,6,5,3,0,1,0,0,0,1,4,0,4,5,6,3,0,3,3,0,1,1,6,2,5,2,0,0,0,0,0,0,1,6,0,0,0,0,2,2,6,3,0,0,0,0,0,0,0,0,0,0,0,0,0,0,0,0,0,0,0,0,0,0,0,0,0,0,0,0,0,0,0,0,0,0],"split_type":[0,0,0,0,0,0,0,0,0,0,0,0,0,0,0,0,0,0,0,0,0,0,0,0,0,0,0,0,0,0,0,0,0,0,0,0,0,0,0,0,0,0,0,0,0,0,0,0,0,0,0,0,0,0,0,0,0,0,0,0,0,0,0,0,0,0,0,0,0,0,0,0,0,0,0,0,0,0,0,0,0,0,0,0,0,0,0,0,0],"sum_hessian":[5.692E3,3.31E3,2.382E3,3.299E3,1.1E1,3E1,2.352E3,1.5E2,3.149E3,5E0,6E0,7E0,2.3E1,2.264E3,8.8E1,6.6E1,8.4E1,4.63E2,2.686E3,4E0,1E0,3E0,3E0,4E0,3E0,1.7E1,6E0,6.4E2,1.624E3,2E0,8.6E1,6.4E1,2E0,5E0,7.9E1,2.46E2,2.17E2,2.629E3,5.7E1,2E0,1E0,2E0,2E0,2E0,1E0,7E0,1E1,4E0,2E0,5.5E2,9E1,2.5E1,1.599E3,2.3E1,6.3E1,2.2E1,4.2E1,4E0,1E0,7.6E1,3E0,2.19E2,2.7E1,9.3E1,1.24E2,1.48E2,2.481E3,5.3E1,4E0,1E0,1E0,4E0,3E0,2E0,8E0,2E0,2E0,4.2E2,1.3E2,8.2E1,8E0,2E0,2.3E1,8.55E2,7.44E2,1.9E1,4E0,4E0,5.9E1],"tree_param":{"num_deleted":"0","num_feature":"7","num_nodes":"89","size_leaf_vector":"1"}},{"base_weights":[-3.491643E-5,-1.9142823E-2,2.8702585E-2,-2.5936406E-2,9.844855E-2,7.0171547E-3,7.258318E-2,-5.5216786E-2,-5.8431723E-3,3.0068347E-1,6.2442135E-2,3.915831E-2,-6.1644442E-2,1.6718283E-1,3.161987E-2,-5.2264776E-2,-5.997765E-1,-9.47249E-2,7.1609276E-3,4.0689352E-1,-7.607426E-2,-4.390679E-2,9.825767E-2,4.0811896E-3,1.08396284E-1,-1.5346162E-1,-4.3715026E-2,3.3985263E-1,8.641739E-2,6.1141968E-2,-3.6294073E-2,-4.6453103E-2,-3.2670623E-1,6.353424E-2,-7.703328E-1,-2.653574E-1,-1.0385762E-2,3.4689166E-2,-1.6468802E-2,-8.142614E-2,4.882822E-1,-1.284699E-1,1.5043584E-1,-4.0579963E-1,6.18432E-3,1.0558431E-1,-1.1604188E-1,-1.0802532E-1,2.6925059E-2,1.6105263E-1,2.9576631E-2,-9.6796654E-2,-7.224732E-1,-7.7069625E-2,4.4043165E-2,4.923887E-1,1.6453195E-1,4.5720503E-2,2.2580606E-1,1.2366399E-1,5.9637562E-3,-1.367273E-1,1.1649214E-1,-1.5981846E-2,4.694517E-2,-1.917856E-1,3.5187427E-2,-3.912102E-2,-2.6167142E-1,-1.543795E-1,-4.7294438E-2,3.8855437E-2,-1.597998E-2,2.068189E-3,8.696264E-2,-2.4840634E-3,-8.761287E-2,6.787727E-2,-7.782197E-2,1.6507596E-1,6.141386E-2,9.6283585E-2,8.271647E-3,-3.2142807E-2,-1.3610347E-1,4.7512688E-2,-3.1434413E-2,1.6917273E-2,5.392338E-2,-1.822396E-1,-2.2666773E-2,1.5331348E-2,-2.1981422E-2,1.17716126E-1,3.8246635E-2,1.267948E-1,2.6927995E-3,-1.32359015E-2,-1.0095822E-1,-6.931658E-2,-3.0998188E-1,-1.5114676E-2,-5.3094096E-2,1.3632631E-1,6.2509766E-3,2.1692461E-1,7.458319E-2,1.03117675E-1,3.2237288E-2,1.7856142E-2,-8.673082E-2,7.9528295E-2,-2.4808645E-3,-1.8834879E-1,4.085946E-2,-7.777475E-2,5.1474436E-3,-5.5713005E-2,1.2942576E-1,6.356715E-2,1.09222755E-2],"categories":[],"categories_nodes":[],"categories_segments":[],"categories_sizes":[],"default_left":[0,0,0,0,0,0,0,0,0,0,0,0,0,0,0,0,0,0,0,0,0,0,0,0,0,0,0,0,0,0,0,0,0,0,0,0,0,0,0,0,0,0,0,0,0,0,0,0,0,0,0,0,0,0,0,0,0,0,0,0,0,0,0,0,0,0,0,0,0,0,0,0,0,0,0,0,0,0,0,0,0,0,0,0,0,0,0,0,0,0,0,0,0,0,0,0,0,0,0,0,0,0,0,0,0,0,0,0,0,0,0,0,0,0,0,0,0,0,0,0,0],"id":11,"left_children":[1,3,5,7,9,11,13,15,17,19,21,23,25,27,29,31,33,35,37,39,41,43,45,47,49,51,53,55,57,59,61,63,65,-1,67,69,71,73,75,77,79,-1,81,83,85,87,-1,89,91,93,95,97,99,101,103,105,107,109,111,113,115,117,119,-1,-1,-1,-1,-1,-1,-1,-1,-1,-1,-1,-1,-1,-1,-1,-1,-1,-1,-1,-1,-1,-1,-1,-1,-1,-1,-1,-1,-1,-1,-1,-1,-1,-1,-1,-1,-1,-1,-1,-1,-1,-1,-1,-1,-1,-1,-1,-1,-1,-1,-1,-1,-1,-1,-1,-1,-1,-1],"loss_changes":[3.1266527E0,2.7346773E0,2.1633606E0,1.9023604E0,1.3429129E0,3.3634663E0,2.9088E0,2.0841842E0,2.2187102E0,1.151387E0,6.1374503E-1,2.520516E0,7.9335845E-1,3.1363163E0,1.0568292E0,2.0742252E0,1.1320553E0,3.523039E0,1.0901334E0,9.1411996E-1,6.227941E-1,7.4574167E-1,4.6730745E-1,1.7699617E0,1.4437103E0,2.4772663E0,1.1976672E0,1.8444624E0,8.746151E-1,1.2653587E0,2.4710975E0,1.785356E0,3.8221607E0,0E0,2.7752995E-1,2.0933652E0,9.967661E-1,5.4879484E0,2.033002E0,2.777394E-1,2.2124434E-1,0E0,9.589793E-2,2.2888064E-2,6.414513E-1,4.239993E-1,0E0,1.8514357E0,1.3943707E0,1.5727496E0,1.1379603E0,9.0701777E-1,8.3038473E-1,7.80324E-1,1.066683E0,1.9572783E0,3.2102144E-1,5.809145E-1,3.24067E-1,1.7056415E0,5.8635193E-1,2.7795665E0,4.812413E-1,0E0,0E0,0E0,0E0,0E0,0E0,0E0,0E0,0E0,0E0,0E0,0E0,0E0,0E0,0E0,0E0,0E0,0E0,0E0,0E0,0E0,0E0,0E0,0E0,0E0,0E0,0E0,0E0,0E0,0E0,0E0,0E0,0E0,0E0,0E0,0E0,0E0,0E0,0E0,0E0,0E0,0E0,0E0,0E0,0E0,0E0,0E0,0E0,0E0,0E0,0E0,0E0,0E0,0E0,0E0,0E0,0E0,0E0],"parents":[2147483647,0,0,1,1,2,2,3,3,4,4,5,5,6,6,7,7,8,8,9,9,10,10,11,11,12,12,13,13,14,14,15,15,16,16,17,17,18,18,19,19,20,20,21,21,22,22,23,23,24,24,25,25,26,26,27,27,28,28,29,29,30,30,31,31,32,32,34,34,35,35,36,36,37,37,38,38,39,39,40,40,42,42,43,43,44,44,45,45,47,47,48,48,49,49,50,50,51,51,52,52,53,53,54,54,55,55,56,56,57,57,58,58,59,59,60,60,61,61,62,62],"right_children":[2,4,6,8,10,12,14,16,18,20,22,24,26,28,30,32,34,36,38,40,42,44,46,48,50,52,54,56,58,60,62,64,66,-1,68,70,72,74,76,78,80,-1,82,84,86,88,-1,90,92,94,96,98,100,102,104,106,108,110,112,114,116,118,120,-1,-1,-1,-1,-1,-1,-1,-1,-1,-1,-1,-1,-1,-1,-1,-1,-1,-1,-1,-1,-1,-1,-1,-1,-1,-1,-1,-1,-1,-1,-1,-1,-1,-1,-1,-1,-1,-1,-1,-1,-1,-1,-1,-1,-1,-1,-1,-1,-1,-1,-1,-1,-1,-1,-1,-1,-1,-1],"split_conditions":[6.1906977E0,6.617647E0,1.97E2,5.542857E0,5.6E0,9.9E1,1.995E3,4.1777E4,1.974E3,1.5E2,6.207692E0,4E1,6.0666666E0,6.34E0,1.41E2,6.18E0,2.001E3,3E1,2.005E3,1.04E2,1.996E3,5.4E0,2.1E2,6.0571427E0,1.987E3,1.59E2,1.22E2,6.67E0,1.102E3,6.4428573E0,6.68E0,6.1E0,1.494E3,6.353424E-2,2.8E0,5.74E0,5.9333334E0,2.057E3,1.64E2,9.6E1,6.4823527E0,-1.284699E-1,2.004E3,1.984E3,5.866667E0,1.4E2,-1.1604188E-1,6E0,1.46E2,5.891667E0,5.3E0,6.62E0,6.32E0,6.571429E0,6.16875E0,6.4166665E0,1.971E3,9.96E2,7.35E0,1.996E3,5.5E0,5.9545E4,2.007E3,-1.5981846E-2,4.694517E-2,-1.917856E-1,3.5187427E-2,-3.912102E-2,-2.6167142E-1,-1.543795E-1,-4.7294438E-2,3.8855437E-2,-1.597998E-2,2.068189E-3,8.696264E-2,-2.4840634E-3,-8.761287E-2,6.787727E-2,-7.782197E-2,1.6507596E-1,6.141386E-2,9.6283585E-2,8.271647E-3,-3.2142807E-2,-1.3610347E-1,4.7512688E-2,-3.1434413E-2,1.6917273E-2,5.392338E-2,-1.822396E-1,-2.2666773E-2,1.5331348E-2,-2.1981422E-2,1.17716126E-1,3.8246635E-2,1.267948E-1,2.6927995E-3,-1.32359015E-2,-1.0095822E-1,-6.931658E-2,-3.0998188E-1,-1.5114676E-2,-5.3094096E-2,1.3632631E-1,6.2509766E-3,2.1692461E-1,7.458319E-2,1.03117675E-1,3.2237288E-2,1.7856142E-2,-8.673082E-2,7.9528295E-2,-2.4808645E-3,-1.8834879E-1,4.085946E-2,-7.777475E-2,5.1474436E-3,-5.5713005E-2,1.2942576E-1,6.356715E-2,1.09222755E-2],"split_indices":[4,5,2,6,3,2,0,2,0,1,3,2,3,6,1,4,0,2,0,1,0,4,1,6,0,1,2,4,2,5,4,4,2,0,3,4,4,2,1,1,6,0,0,0,3,1,0,2,1,6,3,5,4,4,3,5,0,2,5,0,3,2,0,0,0,0,0,0,0,0,0,0,0,0,0,0,0,0,0,0,0,0,0,0,0,0,0,0,0,0,0,0,0,0,0,0,0,0,0,0,0,0,0,0,0,0,0,0,0,0,0,0,0,0,0,0,0,0,0,0,0],"split_type":[0,0,0,0,0,0,0,0,0,0,0,0,0,0,0,0,0,0,0,0,0,0,0,0,0,0,0,0,0,0,0,0,0,0,0,0,0,0,0,0,0,0,0,0,0,0,0,0,0,0,0,0,0,0,0,0,0,0,0,0,0,0,0,0,0,0,0,0,0,0,0,0,0,0,0,0,0,0,0,0,0,0,0,0,0,0,0,0,0,0,0,0,0,0,0,0,0,0,0,0,0,0,0,0,0,0,0,0,0,0,0,0,0,0,0,0,0,0,0,0,0],"sum_hessian":[5.692E3,3.419E3,2.273E3,3.233E3,1.86E2,1.522E3,7.51E2,1.315E3,1.918E3,2.7E1,1.59E2,1.037E3,4.85E2,2.26E2,5.25E2,1.309E3,6E0,2.44E2,1.674E3,2.1E1,6E0,4E1,1.19E2,6.89E2,3.48E2,7.8E1,4.07E2,7.1E1,1.55E2,3.66E2,1.59E2,1.283E3,2.6E1,1E0,5E0,8E1,1.64E2,7.73E2,9.01E2,3E0,1.8E1,2E0,4E0,4E0,3.6E1,1.18E2,1E0,1.16E2,5.73E2,2.08E2,1.4E2,7.2E1,6E0,2.95E2,1.12E2,3.7E1,3.4E1,1.21E2,3.4E1,1.71E2,1.95E2,9.6E1,6.3E1,1.242E3,4.1E1,1.5E1,1.1E1,1E0,4E0,2.3E1,5.7E1,3.8E1,1.26E2,6.98E2,7.5E1,8.76E2,2.5E1,1E0,2E0,1.4E1,4E0,1E0,3E0,1E0,3E0,1.5E1,2.1E1,7.2E1,4.6E1,6E0,1.1E2,4.62E2,1.11E2,2.5E1,1.83E2,6E0,1.34E2,6E1,1.2E1,3E0,3E0,2.34E2,6.1E1,5E0,1.07E2,1.8E1,1.9E1,7E0,2.7E1,1.17E2,4E0,2.9E1,5E0,2E0,1.69E2,7E0,1.88E2,8.9E1,7E0,2.8E1,3.5E1],"tree_param":{"num_deleted":"0","num_feature":"7","num_nodes":"121","size_leaf_vector":"1"}},{"base_weights":[-1.1749764E-4,-8.967065E-2,3.857554E-3,-4.7522485E-2,-1.8110582E-1,-2.3468107E-1,5.4864446E-3,-1.2884738E-1,6.8962304E-3,-1.4892344E-1,-2.1694733E-1,-1.6297234E-2,-2.943629E-1,-2.8896126E-1,6.5218317E-3,-5.9851333E-2,-2.2884703E-1,-3.0541286E-1,2.9835887E-2,7.6119043E-3,-2.2574916E-1,8.591556E-2,-8.993068E-2,-3.1688866E-1,5.0453678E-2,-9.469366E-2,-4.543327E-1,-2.709307E-1,7.552233E-3,-2.2405253E-1,-2.5301058E-2,-1.20414086E-1,-3.2093376E-1,-1.062168E-1,-3.6761E-2,-2.156554E-1,5.4888595E-2,-1.3118085E-1,9.388164E-2,-2.5798708E-1,4.8287153E-2,-6.86121E-3,-5.138546E-2,-2.3889136E-1,-5.6306344E-1,9.813756E-3,-1.0254467E-1,-5.2196354E-1,2.3151685E-2,-4.152417E-1,-2.5590658E-3,6.086775E-3,1.63619E-1,1.3823033E-2,-1.0239589E-1,1.3184999E-3,-3.7822388E-2,-7.563804E-2,2.9658885E-3,-2.4212839E-3,-1.0331379E-1,-9.834293E-3,-2.5179765E-1,-3.3160844E-3,3.3373445E-2,2.935672E-3,-5.0293703E-2,-4.856524E-3,5.438712E-2,-3.986766E-2,-1.2938905E-1,6.334789E-2,-1.1491127E-1,7.3890453E-3,-1.081965E-2,-1.3765602E-1,-5.4886322E-2,-2.1594158E-1,-4.9915984E-2,-2.42368E-2,3.618425E-2,-1.6584098E-1,-4.128678E-2,-1.580789E-1,-3.934653E-2,-4.586666E-2,5.579789E-2,7.6138356E-4,1.9611279E-2,1.13051556E-1,2.5910916E-2],"categories":[],"categories_nodes":[],"categories_segments":[],"categories_sizes":[],"default_left":[0,0,0,0,0,0,0,0,0,0,0,0,0,0,0,0,0,0,0,0,0,0,0,0,0,0,0,0,0,0,0,0,0,0,0,0,0,0,0,0,0,0,0,0,0,0,0,0,0,0,0,0,0,0,0,0,0,0,0,0,0,0,0,0,0,0,0,0,0,0,0,0,0,0,0,0,0,0,0,0,0,0,0,0,0,0,0,0,0,0,0],"id":12,"left_children":[1,3,5,7,9,11,13,15,17,19,-1,21,23,25,27,29,31,33,35,37,39,-1,41,43,-1,45,47,49,51,53,55,57,59,-1,-1,61,63,65,67,69,71,73,-1,75,77,79,-1,81,-1,83,85,87,89,-1,-1,-1,-1,-1,-1,-1,-1,-1,-1,-1,-1,-1,-1,-1,-1,-1,-1,-1,-1,-1,-1,-1,-1,-1,-1,-1,-1,-1,-1,-1,-1,-1,-1,-1,-1,-1,-1],"loss_changes":[2.0269308E0,9.24019E-1,2.1196802E0,7.399632E-1,1.2180882E0,4.774437E-1,1.6530461E0,4.4857502E-1,7.327029E-1,8.796121E-1,0E0,2.2634275E-1,3.5544825E-1,5.6737757E-1,1.5452669E0,2.2693232E-1,2.3095632E-1,1.8884778E-2,5.9610814E-1,3.1165585E-1,4.453416E-1,0E0,5.288916E-2,4.03116E-1,0E0,2.616152E-1,3.9974236E-1,7.735169E-1,1.2292312E0,2.374678E-1,1.05294324E-1,2.4276362E-1,9.9913836E-2,0E0,0E0,9.9896586E-1,3.2454368E-1,5.304365E-2,1.5687214E-1,8.96611E-1,5.023875E-1,5.4867123E-3,0E0,1.9904304E-1,2.532891E-1,9.005521E-2,0E0,3.059864E-2,0E0,3.4336782E-1,2.5519615E-1,1.1212094E0,7.91005E-1,0E0,0E0,0E0,0E0,0E0,0E0,0E0,0E0,0E0,0E0,0E0,0E0,0E0,0E0,0E0,0E0,0E0,0E0,0E0,0E0,0E0,0E0,0E0,0E0,0E0,0E0,0E0,0E0,0E0,0E0,0E0,0E0,0E0,0E0,0E0,0E0,0E0,0E0],"parents":[2147483647,0,0,1,1,2,2,3,3,4,4,5,5,6,6,7,7,8,8,9,9,11,11,12,12,13,13,14,14,15,15,16,16,17,17,18,18,19,19,20,20,22,22,23,23,25,25,26,26,27,27,28,28,29,29,30,30,31,31,32,32,35,35,36,36,37,37,38,38,39,39,40,40,41,41,43,43,44,44,45,45,47,47,49,49,50,50,51,51,52,52],"right_children":[2,4,6,8,10,12,14,16,18,20,-1,22,24,26,28,30,32,34,36,38,40,-1,42,44,-1,46,48,50,52,54,56,58,60,-1,-1,62,64,66,68,70,72,74,-1,76,78,80,-1,82,-1,84,86,88,90,-1,-1,-1,-1,-1,-1,-1,-1,-1,-1,-1,-1,-1,-1,-1,-1,-1,-1,-1,-1,-1,-1,-1,-1,-1,-1,-1,-1,-1,-1,-1,-1,-1,-1,-1,-1,-1,-1],"split_conditions":[4.2E0,4.9333334E0,3.4E0,3.4E0,2.02E3,3.5E0,3.3E0,3.45E0,2.8E0,4E0,-2.1694733E-1,1.994E3,5.7375E0,4.5E0,3.5E0,9.4E1,3.4E0,2.66E2,1.993E3,1.13E2,1.72E3,8.591556E-2,1.22E2,5.423077E0,5.0453678E-2,5.22E2,2.019E3,2.014E3,8.3E0,2.011E3,1.37E2,3.1E0,8.8E1,-1.062168E-1,-3.6761E-2,5.9E1,3.8E0,3.3E0,7.6E1,1.78E2,9.06E3,2.8E0,-5.138546E-2,2.8E0,5.5E0,3E0,-1.0254467E-1,5.9076924E0,2.3151685E-2,5.9266667E0,4.38E0,8.146E3,8.2E0,1.3823033E-2,-1.0239589E-1,1.3184999E-3,-3.7822388E-2,-7.563804E-2,2.9658885E-3,-2.4212839E-3,-1.0331379E-1,-9.834293E-3,-2.5179765E-1,-3.3160844E-3,3.3373445E-2,2.935672E-3,-5.0293703E-2,-4.856524E-3,5.438712E-2,-3.986766E-2,-1.2938905E-1,6.334789E-2,-1.1491127E-1,7.3890453E-3,-1.081965E-2,-1.3765602E-1,-5.4886322E-2,-2.1594158E-1,-4.9915984E-2,-2.42368E-2,3.618425E-2,-1.6584098E-1,-4.128678E-2,-1.580789E-1,-3.934653E-2,-4.586666E-2,5.579789E-2,7.6138356E-4,1.9611279E-2,1.13051556E-1,2.5910916E-2],"split_indices":[4,6,3,4,0,5,6,6,3,3,0,0,6,5,5,1,3,2,0,1,2,0,2,6,0,2,0,0,6,0,1,4,1,0,0,2,6,5,2,2,2,3,0,3,6,6,0,5,0,4,3,2,4,0,0,0,0,0,0,0,0,0,0,0,0,0,0,0,0,0,0,0,0,0,0,0,0,0,0,0,0,0,0,0,0,0,0,0,0,0,0],"split_type":[0,0,0,0,0,0,0,0,0,0,0,0,0,0,0,0,0,0,0,0,0,0,0,0,0,0,0,0,0,0,0,0,0,0,0,0,0,0,0,0,0,0,0,0,0,0,0,0,0,0,0,0,0,0,0,0,0,0,0,0,0,0,0,0,0,0,0,0,0,0,0,0,0,0,0,0,0,0,0,0,0,0,0,0,0,0,0,0,0,0,0],"sum_hessian":[5.692E3,2.41E2,5.451E3,1.66E2,7.5E1,3.6E1,5.415E3,6.6E1,1E2,7.2E1,3E0,8E0,2.8E1,1.8E1,5.397E3,4E1,2.6E1,6E0,9.4E1,2.4E1,4.8E1,1E0,7E0,2.7E1,1E0,9E0,9E0,1.9E1,5.378E3,6E0,3.4E1,1.3E1,1.3E1,4E0,2E0,8E0,8.6E1,9E0,1.5E1,4.3E1,5E0,4E0,3E0,2.2E1,5E0,7E0,2E0,8E0,1E0,1.2E1,7E0,5.329E3,4.9E1,2E0,4E0,2.7E1,7E0,6E0,7E0,1E0,1.2E1,7E0,1E0,4E1,4.6E1,2E0,7E0,7E0,8E0,2.6E1,1.7E1,4E0,1E0,2E0,2E0,3E0,1.9E1,3E0,2E0,4E0,3E0,7E0,1E0,8E0,4E0,4E0,3E0,5.029E3,3E2,1.2E1,3.7E1],"tree_param":{"num_deleted":"0","num_feature":"7","num_nodes":"91","size_leaf_vector":"1"}},{"base_weights":[-3.9733906E-4,-1.7346598E-2,1.3271892E-2,-2.2223871E-2,7.634954E-2,8.600559E-3,6.608275E-2,-2.7538612E-2,6.925286E-2,2.3486768E-1,3.278615E-2,-1.271935E-1,1.0836167E-2,2.872017E-1,5.0144818E-2,-2.1114027E-2,-1.4748524E-1,-1.6938163E-1,1.20689005E-1,6.27016E-1,1.17242336E-1,-3.9717278E-1,4.5613606E-2,1.7534971E-2,-2.5525597E-1,-3.7030333E-1,1.1770136E-2,4.1066217E-1,1.8252672E-1,1.15968905E-1,3.0868636E-2,-2.7852992E-2,8.935824E-2,1.0608764E-1,-2.77296E-1,2.804596E-1,-3.349098E-1,3.2151037E-1,6.6830136E-2,7.364333E-1,1.19894035E-2,-4.885791E-2,3.2144842E-1,-1.47201065E-2,-1.6400765E-1,2.0304918E-1,1.2418259E-2,-1.7950502E-1,1.8291228E-1,9.130168E-2,-3.6950055E-1,1.6148387E-1,-1.8343411E-1,3.9870632E-1,1.0675259E-2,1.4273215E-2,1.3897403E-1,-3.5469532E-2,2.2442575E-1,6.9316596E-2,1.6731292E-1,1.7293347E-2,1.1426588E-1,-7.914368E-3,-9.7459935E-2,8.043417E-2,-3.4545008E-2,1.0005673E-1,5.74759E-3,-1.6033521E-1,-4.9415056E-2,1.1836985E-1,-9.6135144E-4,-1.2379748E-1,5.7415534E-2,1.4610729E-1,-1.4911849E-2,-1.870676E-1,2.9559836E-2,2.6854777E-1,1.522944E-2,-8.670363E-2,1.5626866E-2,1.16516344E-1,1.0738183E-2,2.9121889E-2,1.1434804E-1,-2.3456547E-2,3.2853015E-2,-8.2037985E-2,-1.6689777E-2,-2.8419543E-2,7.2601505E-2,-3.8611222E-2,6.151344E-2,-1.4114068E-1,3.8024426E-2,1.4464493E-1,-2.7809644E-2,1.8099753E-2,1.5519116E-3,8.165887E-2,6.6687586E-3,3.6316585E-2,-1.9457277E-2,8.74691E-3,6.0118277E-2,-5.423904E-2,6.2698363E-3,1.01141386E-1,2.1161232E-2],"categories":[],"categories_nodes":[],"categories_segments":[],"categories_sizes":[],"default_left":[0,0,0,0,0,0,0,0,0,0,0,0,0,0,0,0,0,0,0,0,0,0,0,0,0,0,0,0,0,0,0,0,0,0,0,0,0,0,0,0,0,0,0,0,0,0,0,0,0,0,0,0,0,0,0,0,0,0,0,0,0,0,0,0,0,0,0,0,0,0,0,0,0,0,0,0,0,0,0,0,0,0,0,0,0,0,0,0,0,0,0,0,0,0,0,0,0,0,0,0,0,0,0,0,0,0,0,0,0,0,0],"id":13,"left_children":[1,3,5,7,9,11,13,15,17,19,21,23,25,27,29,31,33,35,37,39,41,43,45,47,49,51,53,55,57,59,61,63,65,67,69,71,73,75,77,79,-1,81,83,-1,-1,85,87,89,91,93,95,-1,-1,97,99,-1,-1,-1,101,103,105,107,109,-1,-1,-1,-1,-1,-1,-1,-1,-1,-1,-1,-1,-1,-1,-1,-1,-1,-1,-1,-1,-1,-1,-1,-1,-1,-1,-1,-1,-1,-1,-1,-1,-1,-1,-1,-1,-1,-1,-1,-1,-1,-1,-1,-1,-1,-1,-1,-1],"loss_changes":[1.3192036E0,1.1633439E0,7.77021E-1,1.1769923E0,8.624036E-1,8.8085645E-1,8.877883E-1,1.7577235E0,1.6529425E0,1.1719049E0,5.6964433E-1,8.755872E-1,1.0192354E0,1.4473808E-1,3.0094105E-1,1.6179855E0,3.8477309E0,1.8810022E0,1.168275E0,3.5597014E-1,7.619163E-1,1.2932113E-1,5.096391E-1,7.823104E-1,1.0235445E0,1.862823E0,1.2010202E0,1.11608505E-1,1.6515061E-1,1.1774957E-1,2.0973448E-1,8.8580656E-1,4.6005E0,7.844372E-1,2.1411376E0,2.2783989E-1,8.1551147E-1,1.4373622E0,1.9875103E0,4.9872422E-1,0E0,3.3021292E-1,1.7731345E-1,0E0,0E0,2.838835E-1,7.299304E-1,1.1280939E-1,2.3621324E-1,2.0155908E-1,1.0116341E0,0E0,0E0,3.7273097E-1,7.75101E-1,0E0,0E0,0E0,9.0539575E-2,2.1611123E-1,1.0841733E-1,1.1950067E-1,2.2961119E-1,0E0,0E0,0E0,0E0,0E0,0E0,0E0,0E0,0E0,0E0,0E0,0E0,0E0,0E0,0E0,0E0,0E0,0E0,0E0,0E0,0E0,0E0,0E0,0E0,0E0,0E0,0E0,0E0,0E0,0E0,0E0,0E0,0E0,0E0,0E0,0E0,0E0,0E0,0E0,0E0,0E0,0E0,0E0,0E0,0E0,0E0,0E0,0E0],"parents":[2147483647,0,0,1,1,2,2,3,3,4,4,5,5,6,6,7,7,8,8,9,9,10,10,11,11,12,12,13,13,14,14,15,15,16,16,17,17,18,18,19,19,20,20,21,21,22,22,23,23,24,24,25,25,26,26,27,27,28,28,29,29,30,30,31,31,32,32,33,33,34,34,35,35,36,36,37,37,38,38,39,39,41,41,42,42,45,45,46,46,47,47,48,48,49,49,50,50,53,53,54,54,58,58,59,59,60,60,61,61,62,62],"right_children":[2,4,6,8,10,12,14,16,18,20,22,24,26,28,30,32,34,36,38,40,42,44,46,48,50,52,54,56,58,60,62,64,66,68,70,72,74,76,78,80,-1,82,84,-1,-1,86,88,90,92,94,96,-1,-1,98,100,-1,-1,-1,102,104,106,108,110,-1,-1,-1,-1,-1,-1,-1,-1,-1,-1,-1,-1,-1,-1,-1,-1,-1,-1,-1,-1,-1,-1,-1,-1,-1,-1,-1,-1,-1,-1,-1,-1,-1,-1,-1,-1,-1,-1,-1,-1,-1,-1,-1,-1,-1,-1,-1,-1],"split_conditions":[6.1E0,6.78E0,7.4E0,8.146E3,6.9E0,4.957143E0,6.04E0,4.12E3,4.9E0,5.2875E0,1.957E3,6.366667E0,4.4E0,6.05E0,6.825E0,2.42E3,2.007E3,2.01E3,1.35E2,4.63E2,5.8235292E0,1.955E3,7.1E1,5.590909E0,4.425E0,9.5E1,4.525E0,1.968E3,6.125E0,7.25E0,8.7E0,7.276923E0,2.011E3,5.1125E0,5.54E0,6.025E0,6.125E0,6.2965517E0,1.36E2,1.59E2,1.19894035E-2,5.81E0,1.41E2,-1.47201065E-2,-1.6400765E-1,1.28E2,7.2E0,7.6E1,9.9E1,3.1E1,6.896154E0,1.6148387E-1,-1.8343411E-1,1.63E2,5.625E0,1.4273215E-2,1.3897403E-1,-3.5469532E-2,4.78E3,6.9727273E0,2.5E1,6.86E0,7.5529413E0,-7.914368E-3,-9.7459935E-2,8.043417E-2,-3.4545008E-2,1.0005673E-1,5.74759E-3,-1.6033521E-1,-4.9415056E-2,1.1836985E-1,-9.6135144E-4,-1.2379748E-1,5.7415534E-2,1.4610729E-1,-1.4911849E-2,-1.870676E-1,2.9559836E-2,2.6854777E-1,1.522944E-2,-8.670363E-2,1.5626866E-2,1.16516344E-1,1.0738183E-2,2.9121889E-2,1.1434804E-1,-2.3456547E-2,3.2853015E-2,-8.2037985E-2,-1.6689777E-2,-2.8419543E-2,7.2601505E-2,-3.8611222E-2,6.151344E-2,-1.4114068E-1,3.8024426E-2,1.4464493E-1,-2.7809644E-2,1.8099753E-2,1.5519116E-3,8.165887E-2,6.6687586E-3,3.6316585E-2,-1.9457277E-2,8.74691E-3,6.0118277E-2,-5.423904E-2,6.2698363E-3,1.01141386E-1,2.1161232E-2],"split_indices":[5,6,5,2,6,4,3,2,5,5,0,5,6,6,4,2,0,0,1,2,5,0,2,3,6,1,6,0,6,3,4,3,0,5,3,3,6,3,1,1,0,3,1,0,0,1,6,2,1,2,5,0,0,1,3,0,0,0,2,3,2,4,3,0,0,0,0,0,0,0,0,0,0,0,0,0,0,0,0,0,0,0,0,0,0,0,0,0,0,0,0,0,0,0,0,0,0,0,0,0,0,0,0,0,0,0,0,0,0,0,0],"split_type":[0,0,0,0,0,0,0,0,0,0,0,0,0,0,0,0,0,0,0,0,0,0,0,0,0,0,0,0,0,0,0,0,0,0,0,0,0,0,0,0,0,0,0,0,0,0,0,0,0,0,0,0,0,0,0,0,0,0,0,0,0,0,0,0,0,0,0,0,0,0,0,0,0,0,0,0,0,0,0,0,0,0,0,0,0,0,0,0,0,0,0,0,0,0,0,0,0,0,0,0,0,0,0,0,0,0,0,0,0,0,0],"sum_hessian":[5.692E3,2.541E3,3.151E3,2.416E3,1.25E2,2.896E3,2.55E2,2.284E3,1.32E2,2.6E1,9.9E1,4.6E1,2.85E3,1.6E1,2.39E2,2.169E3,1.15E2,2.3E1,1.09E2,5E0,2.1E1,2E0,9.7E1,2.2E1,2.4E1,6E0,2.844E3,6E0,1E1,5.3E1,1.86E2,2.045E3,1.24E2,3.9E1,7.6E1,6E0,1.7E1,2.2E1,8.7E1,4E0,1E0,1.2E1,9E0,1E0,1E0,1.6E1,8.1E1,1E1,1.2E1,6E0,1.8E1,1E0,5E0,7E0,2.837E3,1E0,5E0,1E0,9E0,2.9E1,2.4E1,1.61E2,2.5E1,2.036E3,9E0,6.6E1,5.8E1,1E1,2.9E1,2.2E1,5.4E1,4E0,2E0,1.5E1,2E0,1.5E1,7E0,3E0,8.4E1,3E0,1E0,3E0,9E0,7E0,2E0,1.1E1,5E0,4.2E1,3.9E1,5E0,5E0,2E0,1E1,2E0,4E0,1.5E1,3E0,6E0,1E0,2.82E2,2.555E3,7E0,2E0,2.1E1,8E0,5E0,1.9E1,2E0,1.59E2,3E0,2.2E1],"tree_param":{"num_deleted":"0","num_feature":"7","num_nodes":"111","size_leaf_vector":"1"}},{"base_weights":[-1.844932E-4,-1.0158706E-1,1.3338669E-3,-4.4667523E-2,-1.8820006E-1,-1.6864315E-1,2.4619286E-3,-2.7969593E-2,-3.080772E-1,-6.444508E-2,-3.0088446E-1,-1.814893E-1,4.4072773E-2,-2.0510727E-1,3.0589146E-3,-2.588138E-1,-7.728181E-3,-1.1229358E-1,-2.6341153E-2,3.9665103E-3,-1.1272983E-1,-5.611056E-2,-3.493281E-1,-1.2784733E-1,-3.2821E-1,-1.0544895E-1,-4.7772002E-1,1.1905285E-2,-1.0251867E-2,-7.5136186E-3,-9.851644E-2,-1.41981E-1,3.723743E-2,-3.231286E-2,3.5307307E-2,-1.6026852E-1,-1.3546944E-3,1.7245889E-2,-3.3941485E-2,-3.9242667E-1,-1.8147327E-2,-1.7178157E-1,8.86596E-2,-4.914512E-1,-9.932675E-2,5.3144358E-2,-1.8183978E-1,-4.278499E-2,-1.625647E-1,3.0903984E-3,7.385633E-2,-7.091735E-2,6.881894E-3,-2.8324218E-3,-9.769445E-2,-1.1304141E-3,1.662917E-2,1.6609193E-3,1.3832517E-2,-5.5150747E-2,-2.829695E-3,9.168673E-3,-1.4565826E-2,-1.8916369E-3,-1.2808661E-1,-1.8617876E-2,-7.0943736E-2,-3.7440456E-2,-1.6557398E-1,3.8899542E-3,-3.9192513E-2,-6.1996225E-3,3.2771803E-2,1.3725114E-2,-6.480221E-2,-2.0448094E-4,2.6707195E-2,3.0518638E-2,-2.796472E-2,-2.7996616E-2,1.39624495E-2,2.3893345E-2,-8.276157E-3],"categories":[],"categories_nodes":[],"categories_segments":[],"categories_sizes":[],"default_left":[0,0,0,0,0,0,0,0,0,0,0,0,0,0,0,0,0,0,0,0,0,0,0,0,0,0,0,0,0,0,0,0,0,0,0,0,0,0,0,0,0,0,0,0,0,0,0,0,0,0,0,0,0,0,0,0,0,0,0,0,0,0,0,0,0,0,0,0,0,0,0,0,0,0,0,0,0,0,0,0,0,0,0],"id":14,"left_children":[1,3,5,7,9,11,13,15,17,19,21,23,-1,25,27,29,31,-1,-1,33,35,37,39,41,43,45,47,49,51,-1,-1,53,55,-1,57,59,61,-1,-1,63,-1,65,-1,67,69,71,73,-1,-1,75,77,79,81,-1,-1,-1,-1,-1,-1,-1,-1,-1,-1,-1,-1,-1,-1,-1,-1,-1,-1,-1,-1,-1,-1,-1,-1,-1,-1,-1,-1,-1,-1],"loss_changes":[8.766617E-1,4.0571123E-1,1.0761021E0,2.200998E-1,4.408028E-1,1.7664683E-1,6.9133466E-1,2.3163046E-1,1.0903239E-2,5.660218E-2,1.8198061E-1,2.4137318E-1,0E0,3.8431507E-1,6.5470594E-1,5.6832552E-2,2.8901476E-1,0E0,0E0,3.180306E-2,5.272916E-2,3.2416575E-2,1.5054023E-1,5.715908E-1,2.8745443E-1,1.6715975E-1,8.722484E-3,1.8237174E0,2.308018E0,0E0,0E0,2.890435E-1,2.7065523E-2,0E0,1.9956315E-3,2.314964E-2,7.509551E-3,0E0,0E0,1.5729499E-1,0E0,1.6989148E-1,0E0,4.1962385E-2,1.9276254E-2,2.2959262E-2,7.986823E-2,0E0,0E0,9.481748E-1,1.9466739E0,1.2912107E0,4.3461566E0,0E0,0E0,0E0,0E0,0E0,0E0,0E0,0E0,0E0,0E0,0E0,0E0,0E0,0E0,0E0,0E0,0E0,0E0,0E0,0E0,0E0,0E0,0E0,0E0,0E0,0E0,0E0,0E0,0E0,0E0],"parents":[2147483647,0,0,1,1,2,2,3,3,4,4,5,5,6,6,7,7,8,8,9,9,10,10,11,11,13,13,14,14,15,15,16,16,19,19,20,20,21,21,22,22,23,23,24,24,25,25,26,26,27,27,28,28,31,31,32,32,34,34,35,35,36,36,39,39,41,41,43,43,44,44,45,45,46,46,49,49,50,50,51,51,52,52],"right_children":[2,4,6,8,10,12,14,16,18,20,22,24,-1,26,28,30,32,-1,-1,34,36,38,40,42,44,46,48,50,52,-1,-1,54,56,-1,58,60,62,-1,-1,64,-1,66,-1,68,70,72,74,-1,-1,76,78,80,82,-1,-1,-1,-1,-1,-1,-1,-1,-1,-1,-1,-1,-1,-1,-1,-1,-1,-1,-1,-1,-1,-1,-1,-1,-1,-1,-1,-1,-1,-1],"split_conditions":[3.4E0,4.266667E0,3.2E0,1.265E3,3.65E0,5.7375E0,3E0,8.2E1,2.008E3,3.5E0,1.1E1,5.4E0,4.4072773E-2,5.6444445E0,1.38E2,2.002E3,2.7E0,-1.1229358E-1,-2.6341153E-2,7.9E1,3.3E0,4.38E0,1.494E3,5.28E0,5.5E0,4.36E0,2.003E3,1.34E2,4.1E1,-7.5136186E-3,-9.851644E-2,1.13E2,1.9E1,-3.231286E-2,2.6E1,1.47E2,1.38E2,1.7245889E-2,-3.3941485E-2,1.996E3,-1.8147327E-2,3.3E0,8.86596E-2,5.141667E0,2.8E0,2.018E3,8.6E1,-4.278499E-2,-1.625647E-1,5.93E3,2.787E3,6.7E0,1.986E3,-2.8324218E-3,-9.769445E-2,-1.1304141E-3,1.662917E-2,1.6609193E-3,1.3832517E-2,-5.5150747E-2,-2.829695E-3,9.168673E-3,-1.4565826E-2,-1.8916369E-3,-1.2808661E-1,-1.8617876E-2,-7.0943736E-2,-3.7440456E-2,-1.6557398E-1,3.8899542E-3,-3.9192513E-2,-6.1996225E-3,3.2771803E-2,1.3725114E-2,-6.480221E-2,-2.0448094E-4,2.6707195E-2,3.0518638E-2,-2.796472E-2,-2.7996616E-2,1.39624495E-2,2.3893345E-2,-8.276157E-3],"split_indices":[4,3,3,2,6,6,6,1,0,5,2,6,0,4,1,0,4,0,0,1,6,3,2,6,6,3,0,1,2,0,0,1,2,0,2,2,1,0,0,0,0,6,0,4,3,0,1,0,0,2,2,5,0,0,0,0,0,0,0,0,0,0,0,0,0,0,0,0,0,0,0,0,0,0,0,0,0,0,0,0,0,0,0],"split_type":[0,0,0,0,0,0,0,0,0,0,0,0,0,0,0,0,0,0,0,0,0,0,0,0,0,0,0,0,0,0,0,0,0,0,0,0,0,0,0,0,0,0,0,0,0,0,0,0,0,0,0,0,0,0,0,0,0,0,0,0,0,0,0,0,0,0,0,0,0,0,0,0,0,0,0,0,0,0,0,0,0,0,0],"sum_hessian":[5.692E3,8.3E1,5.609E3,5.1E1,3.2E1,3.6E1,5.573E3,4.9E1,2E0,1.6E1,1.6E1,3.5E1,1E0,1.5E1,5.558E3,3E0,4.6E1,1E0,1E0,7E0,9E0,3E0,1.3E1,2.7E1,8E0,1.2E1,3E0,3.339E3,2.219E3,1E0,2E0,1.1E1,3.5E1,1E0,6E0,6E0,3E0,1E0,2E0,1.1E1,2E0,2.5E1,2E0,4E0,4E0,4E0,8E0,1E0,2E0,2.924E3,4.15E2,4.88E2,1.731E3,7E0,4E0,1.1E1,2.4E1,2E0,4E0,5E0,1E0,2E0,1E0,1E0,1E1,1E1,1.5E1,1E0,3E0,1E0,3E0,2E0,2E0,1E0,7E0,2.802E3,1.22E2,3.56E2,5.9E1,4.1E2,7.8E1,5.56E2,1.175E3],"tree_param":{"num_deleted":"0","num_feature":"7","num_nodes":"83","size_leaf_vector":"1"}},{"base_weights":[-2.9936671E-4,-2.581973E-3,4.4510275E-2,-4.005065E-3,8.783203E-2,3.281416E-1,3.806637E-2,-4.786232E-3,1.848643E-1,2.55472E-1,6.172566E-2,5.9517264E-2,1.7307808E-1,3.1132984E-1,3.1759426E-2,-5.0743655E-3,1.5209928E-1,1.2544984E-1,1.262601E-1,1.1891671E-1,1.1866651E-1,-7.012053E-2,7.317922E-2,-4.0640833E-4,2.4077846E-2,1.147306E-2,1.0748952E-1,2.1150433E-2,1.7675275E-1,-4.977079E-2,-2.492833E-3,-3.191633E-2,1.5898295E-1,1.6300296E-2,7.5091556E-2,9.7335964E-2,-6.962958E-2,5.9441067E-2,-5.3819674E-3,3.201596E-2,8.680218E-2,-9.519719E-3,-7.733801E-2,5.3413022E-2,-9.750397E-4,-1.3833047E-2,5.2404948E-2,3.4157325E-2,-2.6007175E-2,3.5501014E-2,-8.571148E-6,-6.430626E-3,-5.7300664E-2,-1.6740303E-2,2.3522742E-2,1.5142014E-5,-1.20592624E-1,-2.0616962E-2,1.5959628E-2],"categories":[],"categories_nodes":[],"categories_segments":[],"categories_sizes":[],"default_left":[0,0,0,0,0,0,0,0,0,0,0,0,0,0,0,0,0,0,0,0,0,0,0,0,0,0,0,0,0,0,0,0,0,0,0,0,0,0,0,0,0,0,0,0,0,0,0,0,0,0,0,0,0,0,0,0,0,0,0],"id":15,"left_children":[1,3,5,7,9,11,13,15,17,19,21,23,-1,25,27,29,-1,31,-1,33,-1,-1,35,-1,-1,-1,-1,37,39,41,43,-1,45,47,-1,49,51,53,55,57,-1,-1,-1,-1,-1,-1,-1,-1,-1,-1,-1,-1,-1,-1,-1,-1,-1,-1,-1],"loss_changes":[5.8241075E-1,6.974719E-1,4.9195224E-1,7.880028E-1,3.518545E-1,3.6664158E-1,4.5716935E-1,7.861861E-1,2.5568563E-1,1.6338176E-1,2.6752636E-1,5.1592058E-3,0E0,6.3256264E-2,4.0543163E-1,6.1280257E-1,0E0,1.6462436E-1,0E0,9.029825E-2,0E0,0E0,2.5516275E-1,0E0,0E0,0E0,0E0,2.532896E-1,2.8405732E-1,1.0800138E0,6.8732285E-1,0E0,6.2794715E-2,6.0108036E-2,0E0,1.2677646E-1,6.0249764E-2,2.2733909E-1,3.188819E-1,2.2861425E-2,0E0,0E0,0E0,0E0,0E0,0E0,0E0,0E0,0E0,0E0,0E0,0E0,0E0,0E0,0E0,0E0,0E0,0E0,0E0],"parents":[2147483647,0,0,1,1,2,2,3,3,4,4,5,5,6,6,7,7,8,8,9,9,10,10,11,11,13,13,14,14,15,15,17,17,19,19,22,22,27,27,28,28,29,29,30,30,32,32,33,33,35,35,36,36,37,37,38,38,39,39],"right_children":[2,4,6,8,10,12,14,16,18,20,22,24,-1,26,28,30,-1,32,-1,34,-1,-1,36,-1,-1,-1,-1,38,40,42,44,-1,46,48,-1,50,52,54,56,58,-1,-1,-1,-1,-1,-1,-1,-1,-1,-1,-1,-1,-1,-1,-1,-1,-1,-1,-1],"split_conditions":[7.4E0,7.4E0,5.4857144E0,8.2E0,6.04E0,5.3846154E0,1.945E3,8.2E0,1.58E2,1.18E2,6.1125E0,2.005E3,1.7307808E-1,1.21E2,2.021E3,1.955E3,1.5209928E-1,1.963E3,1.262601E-1,2.017E3,1.1866651E-1,-7.012053E-2,8.2E0,-4.0640833E-4,2.4077846E-2,1.147306E-2,1.0748952E-1,7.3E0,8.7E0,1.954E3,1.956E3,-3.191633E-2,5E1,2.006E3,7.5091556E-2,7.0571427E0,6.8461537E0,6.104E0,1.76E2,5.475E0,8.680218E-2,-9.519719E-3,-7.733801E-2,5.3413022E-2,-9.750397E-4,-1.3833047E-2,5.2404948E-2,3.4157325E-2,-2.6007175E-2,3.5501014E-2,-8.571148E-6,-6.430626E-3,-5.7300664E-2,-1.6740303E-2,2.3522742E-2,1.5142014E-5,-1.20592624E-1,-2.0616962E-2,1.5959628E-2],"split_indices":[6,5,3,3,3,3,0,4,1,1,3,0,0,1,0,0,0,0,0,0,0,0,3,0,0,0,0,3,6,0,0,0,1,0,0,6,6,4,1,5,0,0,0,0,0,0,0,0,0,0,0,0,0,0,0,0,0,0,0],"split_type":[0,0,0,0,0,0,0,0,0,0,0,0,0,0,0,0,0,0,0,0,0,0,0,0,0,0,0,0,0,0,0,0,0,0,0,0,0,0,0,0,0,0,0,0,0,0,0,0,0,0,0,0,0,0,0,0,0,0,0],"sum_hessian":[5.692E3,5.417E3,2.75E2,5.334E3,8.3E1,5E0,2.7E2,5.313E3,2.1E1,1E1,7.3E1,3E0,2E0,5E0,2.65E2,5.311E3,2E0,1.8E1,3E0,6E0,4E0,2E0,7.1E1,1E0,2E0,1E0,4E0,2.48E2,1.7E1,2.89E2,5.022E3,2E0,1.6E1,4E0,2E0,6.1E1,1E1,1.01E2,1.47E2,8E0,9E0,2.67E2,2.2E1,2E1,5.002E3,1E0,1.5E1,2E0,2E0,5E1,1.1E1,8E0,2E0,1.4E1,8.7E1,1.46E2,1E0,1E0,7E0],"tree_param":{"num_deleted":"0","num_feature":"7","num_nodes":"59","size_leaf_vector":"1"}},{"base_weights":[-9.738369E-5,-4.5400035E-2,1.9135001E-3,-1.4775177E-2,-1.1209676E-1,-1.2147614E-1,2.7560967E-3,-8.4506616E-2,1.4897255E-2,-9.156939E-2,-1.3760912E-1,-4.1884247E-2,-1.9467457E-1,-1.3587652E-1,3.4758884E-3,1.8085018E-3,-1.2155048E-1,-1.5961608E-1,2.7340584E-2,5.703512E-2,-1.4124058E-1,-8.764087E-2,1.516133E-1,8.7514045E-3,-2.0873107E-1,-2.1136713E-1,2.1143293E-2,-2.5710773E-1,4.008133E-3,5.2414287E-2,-9.1270186E-2,-1.5547116E-2,-1.5238307E-1,-1.9568637E-1,1.3931395E-2,-1.3529284E-1,4.3016993E-2,2.2998465E-2,1.0045424E-1,-2.2645877E-1,-5.097809E-2,-2.5702428E-2,-1.5250762E-1,6.793392E-2,-1.0932899E-2,-8.5214175E-2,-7.490479E-2,-6.9592975E-2,-3.9760745E-1,-9.720206E-2,1.5892906E-1,-2.962126E-1,2.0091176E-2,-2.0052893E-2,7.880709E-3,1.9627325E-2,-1.2262583E-3,-5.795171E-2,2.2506835E-2,3.5811425E-3,-1.5866019E-2,-7.898028E-2,-3.2449566E-2,-6.784388E-2,-2.3907341E-2,1.42963985E-2,-1.7341657E-1,1.94557E-2,-1.4925153E-2,-1.6820429E-2,2.3523195E-2,-1.0098809E-1,-2.203419E-2,-2.7045969E-2,9.165974E-2,-7.398398E-2,8.176232E-3,-3.2311194E-2,4.085219E-3,1.3190727E-2,-5.7144966E-2,-1.3378485E-1,-5.0516296E-2,-3.5869308E-2,-1.0495497E-2,1.00454204E-1,9.371299E-3,-5.4920524E-2,-1.2604856E-1,-2.3806142E-2,2.2121556E-3,9.768314E-3,6.1133085E-4],"categories":[],"categories_nodes":[],"categories_segments":[],"categories_sizes":[],"default_left":[0,0,0,0,0,0,0,0,0,0,0,0,0,0,0,0,0,0,0,0,0,0,0,0,0,0,0,0,0,0,0,0,0,0,0,0,0,0,0,0,0,0,0,0,0,0,0,0,0,0,0,0,0,0,0,0,0,0,0,0,0,0,0,0,0,0,0,0,0,0,0,0,0,0,0,0,0,0,0,0,0,0,0,0,0,0,0,0,0,0,0,0,0],"id":16,"left_children":[1,3,5,7,9,11,13,15,17,19,-1,21,23,25,27,29,31,33,35,37,39,41,43,-1,45,47,49,51,53,55,57,59,61,63,-1,65,67,69,-1,71,73,75,-1,-1,-1,77,-1,79,81,83,85,87,-1,89,91,-1,-1,-1,-1,-1,-1,-1,-1,-1,-1,-1,-1,-1,-1,-1,-1,-1,-1,-1,-1,-1,-1,-1,-1,-1,-1,-1,-1,-1,-1,-1,-1,-1,-1,-1,-1,-1,-1],"loss_changes":[5.187099E-1,4.9264747E-1,5.671667E-1,3.4679887E-1,4.9872166E-1,2.0740825E-1,5.4091644E-1,1.6009212E-1,2.6060414E-1,5.468952E-1,0E0,1.8150958E-1,6.587231E-2,3.363676E-1,7.484538E-1,8.014898E-2,1.1202335E-1,6.854671E-2,2.888153E-1,1.7195925E-1,4.1151595E-1,4.0387163E-1,6.4543724E-2,0E0,6.977129E-2,4.7400665E-1,1.7851128E-1,1.5924102E-1,5.013634E-1,8.353479E-3,1.1616601E-1,9.867579E-3,1.0390669E-1,6.710559E-3,0E0,8.375698E-1,2.0983861E-1,8.325884E-2,0E0,4.4727147E-1,4.186025E-1,1.822013E-1,0E0,0E0,0E0,1.4802858E-2,0E0,1.731179E-1,1.3555169E-2,4.1649416E-3,1.0185641E-1,6.332302E-2,0E0,1.2139025E0,6.6818285E-1,0E0,0E0,0E0,0E0,0E0,0E0,0E0,0E0,0E0,0E0,0E0,0E0,0E0,0E0,0E0,0E0,0E0,0E0,0E0,0E0,0E0,0E0,0E0,0E0,0E0,0E0,0E0,0E0,0E0,0E0,0E0,0E0,0E0,0E0,0E0,0E0,0E0,0E0],"parents":[2147483647,0,0,1,1,2,2,3,3,4,4,5,5,6,6,7,7,8,8,9,9,11,11,12,12,13,13,14,14,15,15,16,16,17,17,18,18,19,19,20,20,21,21,22,22,24,24,25,25,26,26,27,27,28,28,29,29,30,30,31,31,32,32,33,33,35,35,36,36,37,37,39,39,40,40,41,41,45,45,47,47,48,48,49,49,50,50,51,51,53,53,54,54],"right_children":[2,4,6,8,10,12,14,16,18,20,-1,22,24,26,28,30,32,34,36,38,40,42,44,-1,46,48,50,52,54,56,58,60,62,64,-1,66,68,70,-1,72,74,76,-1,-1,-1,78,-1,80,82,84,86,88,-1,90,92,-1,-1,-1,-1,-1,-1,-1,-1,-1,-1,-1,-1,-1,-1,-1,-1,-1,-1,-1,-1,-1,-1,-1,-1,-1,-1,-1,-1,-1,-1,-1,-1,-1,-1,-1,-1,-1,-1],"split_conditions":[4.2E0,4.9333334E0,3.4E0,3.3E0,2.02E3,4.357143E0,3.5E0,3.1E0,2.8E0,3.875E0,-1.3760912E-1,6.31E2,3E0,2.014E3,3.3E0,3E0,3.2E0,1.39E2,1.993E3,2.787E3,2.009E3,1.49E2,2.016E3,8.7514045E-3,1.24E2,5.22E2,1.27E2,2.019E3,1.97E3,2.018E3,2.7E0,2.01E3,1.1E2,2.66E2,1.3931395E-2,4E1,5.225E0,1.11E2,1.0045424E-1,5.5333333E0,1.46E2,2.001E3,-1.5250762E-1,6.793392E-2,-1.0932899E-2,1.38E2,-7.490479E-2,4.366667E0,5.3365593E0,1.13E2,2.015E3,2.007E3,2.0091176E-2,2.5E1,1.987E3,1.9627325E-2,-1.2262583E-3,-5.795171E-2,2.2506835E-2,3.5811425E-3,-1.5866019E-2,-7.898028E-2,-3.2449566E-2,-6.784388E-2,-2.3907341E-2,1.42963985E-2,-1.7341657E-1,1.94557E-2,-1.4925153E-2,-1.6820429E-2,2.3523195E-2,-1.0098809E-1,-2.203419E-2,-2.7045969E-2,9.165974E-2,-7.398398E-2,8.176232E-3,-3.2311194E-2,4.085219E-3,1.3190727E-2,-5.7144966E-2,-1.3378485E-1,-5.0516296E-2,-3.5869308E-2,-1.0495497E-2,1.00454204E-1,9.371299E-3,-5.4920524E-2,-1.2604856E-1,-2.3806142E-2,2.2121556E-3,9.768314E-3,6.1133085E-4],"split_indices":[4,6,3,4,0,5,5,5,3,3,0,2,6,0,6,6,3,1,0,2,0,1,0,0,1,2,1,0,0,0,4,0,1,2,0,2,3,1,0,6,1,0,0,0,0,2,0,6,4,1,0,0,0,2,0,0,0,0,0,0,0,0,0,0,0,0,0,0,0,0,0,0,0,0,0,0,0,0,0,0,0,0,0,0,0,0,0,0,0,0,0,0,0],"split_type":[0,0,0,0,0,0,0,0,0,0,0,0,0,0,0,0,0,0,0,0,0,0,0,0,0,0,0,0,0,0,0,0,0,0,0,0,0,0,0,0,0,0,0,0,0,0,0,0,0,0,0,0,0,0,0,0,0,0,0,0,0,0,0,0,0,0,0,0,0,0,0,0,0,0,0,0,0,0,0,0,0,0,0,0,0,0,0,0,0,0,0,0,0],"sum_hessian":[5.692E3,2.41E2,5.451E3,1.66E2,7.5E1,3.6E1,5.415E3,4.9E1,1.17E2,7.2E1,3E0,1.8E1,1.8E1,2.7E1,5.388E3,1.5E1,3.4E1,7E0,1.1E2,1.8E1,5.4E1,1.5E1,3E0,1E0,1.7E1,1.8E1,9E0,1E1,5.378E3,1E1,5E0,8E0,2.6E1,6E0,1E0,9E0,1.01E2,1.7E1,1E0,2.7E1,2.7E1,1.4E1,1E0,2E0,1E0,5E0,1.2E1,1.1E1,7E0,5E0,4E0,9E0,1E0,7.45E2,4.633E3,8E0,2E0,3E0,2E0,5E0,3E0,6E0,2E1,4E0,2E0,7E0,2E0,8.2E1,1.9E1,7E0,1E1,1.5E1,1.2E1,2.5E1,2E0,2E0,1.2E1,4E0,1E0,6E0,5E0,5E0,2E0,3E0,2E0,1E0,3E0,6E0,3E0,2.35E2,5.1E2,8.86E2,3.747E3],"tree_param":{"num_deleted":"0","num_feature":"7","num_nodes":"93","size_leaf_vector":"1"}},{"base_weights":[-2.534187E-4,-5.128006E-3,1.7660297E-2,1.0006981E-2,-1.974893E-2,1.8119146E-1,-2.0592092E-2,-7.845052E-3,5.7625476E-2,-9.934208E-2,-1.5157797E-2,3.0559415E-1,1.0667213E-1,6.4490936E-3,-6.0026377E-2,-3.5863753E-2,3.8587E-2,1.5577182E-1,4.7652284E-3,-4.0668592E-1,-4.3314952E-2,4.5745645E-2,-2.6678065E-2,6.376529E-1,2.5351205E-1,-2.2788997E-1,1.303141E-1,-7.081229E-2,3.9171353E-2,8.869007E-2,-1.0444768E-1,-6.64118E-2,1.0239609E-2,-1.727608E-2,5.504734E-2,2.2964258E-1,3.7660826E-2,-1.4356321E-1,2.021139E-2,-6.459055E-1,-1.2679777E-1,2.3541132E-1,-7.480114E-2,1.6739981E-1,1.165714E-2,-3.0743396E-1,-2.2099253E-2,2.5469944E-1,9.600964E-2,5.1785216E-2,3.10759E-1,-2.1186377E-1,7.7992916E-2,2.6382476E-1,5.2974913E-2,1.3835983E-1,-1.06596716E-1,9.107004E-2,-2.9182632E-2,2.138518E-1,-1.1542297E-1,-1.8615992E-1,4.2651147E-3,1.6945751E-3,-2.9466534E-2,2.6042828E-2,-5.0093685E-3,-4.506845E-4,-1.309676E-1,2.6637016E-2,-2.8280038E-3,-1.548844E-1,7.363639E-2,-6.4291336E-2,1.8111786E-2,7.0007634E-3,-6.738247E-2,5.952857E-2,-1.5687801E-4,3.438932E-3,-2.7878174E-1,3.460417E-2,-6.052573E-2,-2.683163E-2,2.4787761E-1,-4.2682085E-3,-1.0094913E-1,5.5967446E-4,9.8558635E-2,3.0835928E-2,-2.2678342E-2,-1.2509748E-1,2.8938072E-2,-3.4237493E-2,-4.330694E-3,-1.7077178E-1,3.654022E-2,1.0222807E-1,-2.4421722E-2,6.487504E-2,-1.1273254E-1,9.2663616E-2,-3.39548E-3,3.7323236E-2,-1.00050345E-1,-2.218406E-1,7.269702E-2,8.897385E-3,-5.312643E-2,5.655531E-2,1.3263967E-2,-8.8823445E-2,-3.9933696E-3,2.2293027E-2,1.3164452E-1,4.549825E-3,-1.1335948E-1,1.8171124E-3,-7.324567E-2,2.8617308E-2,-1.9960046E-2],"categories":[],"categories_nodes":[],"categories_segments":[],"categories_sizes":[],"default_left":[0,0,0,0,0,0,0,0,0,0,0,0,0,0,0,0,0,0,0,0,0,0,0,0,0,0,0,0,0,0,0,0,0,0,0,0,0,0,0,0,0,0,0,0,0,0,0,0,0,0,0,0,0,0,0,0,0,0,0,0,0,0,0,0,0,0,0,0,0,0,0,0,0,0,0,0,0,0,0,0,0,0,0,0,0,0,0,0,0,0,0,0,0,0,0,0,0,